{"learner":{"attributes":{"scikit_learn":"{\"_estimator_type\": \"classifier\"}"},"feature_names":["diagnosis_age","lymph_nodes","malignant_tumors","tumor_size","nodes_examined","diagnosis_year","lymph_nodes_ratio","tumor_load","estrogen_info","progesterone_info","her2_info","race","sex","age_group","radiation_sequence","chemotherapy_done","radiotherapy_done"],"feature_types":["int","float","int","float","int","int","float","float","int","int","int","int","int","int","int","int","int"],"gradient_booster":{"model":{"gbtree_model_param":{"num_parallel_tree":"1","num_trees":"100"},"iteration_indptr":[0,1,2,3,4,5,6,7,8,9,10,11,12,13,14,15,16,17,18,19,20,21,22,23,24,25,26,27,28,29,30,31,32,33,34,35,36,37,38,39,40,41,42,43,44,45,46,47,48,49,50,51,52,53,54,55,56,57,58,59,60,61,62,63,64,65,66,67,68,69,70,71,72,73,74,75,76,77,78,79,80,81,82,83,84,85,86,87,88,89,90,91,92,93,94,95,96,97,98,99,100],"tree_info":[0,0,0,0,0,0,0,0,0,0,0,0,0,0,0,0,0,0,0,0,0,0,0,0,0,0,0,0,0,0,0,0,0,0,0,0,0,0,0,0,0,0,0,0,0,0,0,0,0,0,0,0,0,0,0,0,0,0,0,0,0,0,0,0,0,0,0,0,0,0,0,0,0,0,0,0,0,0,0,0,0,0,0,0,0,0,0,0,0,0,0,0,0,0,0,0,0,0,0,0],"trees":[{"base_weights":[2.4441745E-2,7.0052344E-1,-8.7434804E-1,1.0491883E0,-8.2385266E-1,1.1500477E0,2.547588E-1,-1.2614255E0,1.6552183E-1,1.2856193E0,7.702964E-1,5.1524305E-1,-4.0739506E-1,-4.8514605E-1,-1.5856022E0,6.975788E-1,-2.934268E-1,1.0516511E0,1.3222207E0,3.364188E-1,9.1639024E-1,8.070603E-1,2.1143448E-1,2.3291855E-1,-9.213045E-1,1.612371E-2,-9.036818E-1,-1.1072952E0,-2.1143222E0,9.096545E-1,8.651966E-2,-1.2847906E-1,-8.249431E-1,3.4087846E-1,2.1513246E-1,4.080031E-1,3.3201802E-1,2.1790652E-1,-1.20743066E-1,2.9935732E-1,1.8287359E-1,1.5228775E-1,3.0171552E-1,1.2186677E-1,-5.7546888E-2,1.2989087E-1,-2.4831608E-1,-2.0491858E-1,-3.876553E-1,-2.007247E-1,7.871407E-2,-2.0861565E-1,-5.1348305E-1,-2.3855993E-1,-4.723189E-1,-5.2110153E-1,-6.6668296E-1,2.998444E-1,1.6358787E-3,9.889174E-2,-4.2530918E-1,2.1195294E-2,-2.074567E-1,-4.2363964E-2,-3.213348E-1],"categories":[],"categories_nodes":[],"categories_segments":[],"categories_sizes":[],"default_left":[0,0,0,0,0,0,0,0,0,0,0,1,1,0,0,0,0,0,0,0,0,0,0,0,0,0,0,1,0,0,1,1,0,0,0,0,0,0,0,0,0,0,0,0,0,0,0,0,0,0,0,0,0,0,0,0,0,0,0,0,0,0,0,0,0],"id":0,"left_children":[1,3,-1,5,7,9,11,13,15,17,19,21,23,25,27,29,31,33,35,37,39,41,43,45,47,49,51,53,55,57,59,61,63,-1,-1,-1,-1,-1,-1,-1,-1,-1,-1,-1,-1,-1,-1,-1,-1,-1,-1,-1,-1,-1,-1,-1,-1,-1,-1,-1,-1,-1,-1,-1,-1],"loss_changes":[1.2663242E4,2.75467E3,0E0,3.3761182E2,4.1799792E2,1.9165137E2,8.2375305E1,1.6764319E2,7.268268E1,2.220996E1,6.2247864E1,3.0178589E1,4.4654953E1,4.1677486E1,1.1693286E2,1.7773026E1,1.392677E1,9.87616E0,1.7870117E1,7.237401E1,1.7831116E1,9.854904E0,1.3358391E1,1.3286348E1,5.755127E0,1.5588567E1,1.7025467E1,3.515326E1,5.2199097E0,8.291985E0,1.385093E1,1.3877114E1,6.1981583E0,0E0,0E0,0E0,0E0,0E0,0E0,0E0,0E0,0E0,0E0,0E0,0E0,0E0,0E0,0E0,0E0,0E0,0E0,0E0,0E0,0E0,0E0,0E0,0E0,0E0,0E0,0E0,0E0,0E0,0E0,0E0,0E0],"parents":[2147483647,0,0,1,1,3,3,4,4,5,5,6,6,7,7,8,8,9,9,10,10,11,11,12,12,13,13,14,14,15,15,16,16,17,17,18,18,19,19,20,20,21,21,22,22,23,23,24,24,25,25,26,26,27,27,28,28,29,29,30,30,31,31,32,32],"right_children":[2,4,-1,6,8,10,12,14,16,18,20,22,24,26,28,30,32,34,36,38,40,42,44,46,48,50,52,54,56,58,60,62,64,-1,-1,-1,-1,-1,-1,-1,-1,-1,-1,-1,-1,-1,-1,-1,-1,-1,-1,-1,-1,-1,-1,-1,-1,-1,-1,-1,-1,-1,-1,-1,-1],"split_conditions":[2.012E3,6.6666657E-1,-8.7434804E-1,7.7E1,3E0,2.9E1,8.4E1,2.3E1,3E1,2E0,2E0,1.7E1,1.9E1,7.2E1,7E1,7.5E1,6.9E1,2.3E1,7E1,5.8823526E-2,3E0,1E0,3.1249998E-2,8.9E1,5.5555552E-2,2E0,9E1,4.4E1,7.7E1,3E1,2E0,7.8E1,9.1304344E-1,3.4087846E-1,2.1513246E-1,4.080031E-1,3.3201802E-1,2.1790652E-1,-1.20743066E-1,2.9935732E-1,1.8287359E-1,1.5228775E-1,3.0171552E-1,1.2186677E-1,-5.7546888E-2,1.2989087E-1,-2.4831608E-1,-2.0491858E-1,-3.876553E-1,-2.007247E-1,7.871407E-2,-2.0861565E-1,-5.1348305E-1,-2.3855993E-1,-4.723189E-1,-5.2110153E-1,-6.6668296E-1,2.998444E-1,1.6358787E-3,9.889174E-2,-4.2530918E-1,2.1195294E-2,-2.074567E-1,-4.2363964E-2,-3.213348E-1],"split_indices":[5,6,0,0,14,7,0,3,7,8,8,7,7,0,0,0,0,3,0,6,1,16,6,0,6,9,0,3,0,4,1,3,6,0,0,0,0,0,0,0,0,0,0,0,0,0,0,0,0,0,0,0,0,0,0,0,0,0,0,0,0,0,0,0,0],"split_type":[0,0,0,0,0,0,0,0,0,0,0,0,0,0,0,0,0,0,0,0,0,0,0,0,0,0,0,0,0,0,0,0,0,0,0,0,0,0,0,0,0,0,0,0,0,0,0,0,0,0,0,0,0,0,0,0,0,0,0,0,0,0,0,0,0],"sum_hessian":[6.3711455E3,5.180231E3,1.1909147E3,4.2161895E3,9.640416E2,3.740815E3,4.7537457E2,6.6822797E2,2.9581366E2,2.7549197E3,9.858953E2,3.4132346E2,1.3405112E2,1.975846E2,4.7064334E2,1.3675467E2,1.5905898E2,3.7669492E2,2.3782246E3,2.4917738E2,7.3671796E2,1.7325262E2,1.6807082E2,5.9928738E1,7.412238E1,9.03437E1,1.072409E2,2.4872679E2,2.2191656E2,1.01157906E2,3.5596767E1,1.2233573E2,3.6723248E1,2.987425E2,7.7952415E1,2.0188776E3,3.5934714E2,1.631143E2,8.606307E1,5.803625E2,1.5635542E2,7.051765E1,1.0273498E2,1.1332389E2,5.474693E1,5.0916897E1,9.01184E0,4.686157E1,2.7260817E1,2.3430784E1,6.691291E1,8.673896E1,2.0501936E1,1.5072302E2,9.800376E1,5.3169857E1,1.687467E2,9.192077E1,9.237136E0,3.1316145E1,4.280624E0,9.1019585E1,3.1316145E1,1.013832E1,2.6584929E1],"tree_param":{"num_deleted":"0","num_feature":"17","num_nodes":"65","size_leaf_vector":"1"}},{"base_weights":[4.8917197E-2,5.582752E-1,-5.39473E-1,8.675888E-1,-4.984905E-1,9.684146E-1,2.4563867E-1,-7.854193E-1,1.4505544E-1,1.1046846E0,6.611587E-1,4.7178096E-1,-2.1300718E-1,-4.2885312E-1,-1.058413E0,5.524337E-1,-1.6928916E-1,8.7769884E-1,1.1402847E0,3.8096493E-1,8.241058E-1,2.159438E-1,6.674711E-1,3.4506306E-1,-5.2523273E-1,1.1423682E-1,-7.288657E-1,-3.355401E-1,-1.147757E0,8.872377E-1,2.3736551E-1,-5.4334426E-1,3.4890182E-2,2.8805605E-1,1.5149671E-1,3.479632E-1,2.3416263E-1,1.6132261E-1,-4.343953E-2,2.680125E-1,1.5241835E-1,1.0109222E-1,-1.3323481E-1,2.2816388E-1,2.931206E-2,1.24095686E-1,-2.7711233E-1,-9.389169E-2,-2.513818E-1,6.5621175E-2,-2.9352066E-1,-8.920217E-2,-3.237542E-1,5.903045E-2,-2.4045427E-1,-3.5991567E-1,-5.956236E-2,2.86568E-1,9.134696E-2,1.8865688E-1,-5.5832816E-3,-6.8258164E-3,-3.1806058E-1,-1.9072114E-1,4.582214E-2],"categories":[],"categories_nodes":[],"categories_segments":[],"categories_sizes":[],"default_left":[0,0,0,0,0,0,0,0,0,0,0,0,1,0,0,0,0,0,0,0,0,0,0,0,0,0,0,1,1,0,0,1,0,0,0,0,0,0,0,0,0,0,0,0,0,0,0,0,0,0,0,0,0,0,0,0,0,0,0,0,0,0,0,0,0],"id":1,"left_children":[1,3,-1,5,7,9,11,13,15,17,19,21,23,25,27,29,31,33,35,37,39,41,43,45,47,49,51,53,55,57,59,61,63,-1,-1,-1,-1,-1,-1,-1,-1,-1,-1,-1,-1,-1,-1,-1,-1,-1,-1,-1,-1,-1,-1,-1,-1,-1,-1,-1,-1,-1,-1,-1,-1],"loss_changes":[5.685324E3,1.548651E3,0E0,2.2955054E2,1.9826132E2,1.3127905E2,5.3257984E1,7.180536E1,4.257646E1,1.6636719E1,4.402719E1,1.7056808E1,2.979219E1,5.2805016E1,2.6724731E1,1.5056118E1,1.4379044E1,8.746323E0,1.2369873E1,2.9667229E1,1.2970642E1,1.2163235E1,1.0223869E1,5.7402277E0,6.997141E0,1.3459902E1,3.1208618E1,1.1961197E1,1.8167755E1,2.474678E0,7.6204853E0,1.7856392E1,9.784239E0,0E0,0E0,0E0,0E0,0E0,0E0,0E0,0E0,0E0,0E0,0E0,0E0,0E0,0E0,0E0,0E0,0E0,0E0,0E0,0E0,0E0,0E0,0E0,0E0,0E0,0E0,0E0,0E0,0E0,0E0,0E0,0E0],"parents":[2147483647,0,0,1,1,3,3,4,4,5,5,6,6,7,7,8,8,9,9,10,10,11,11,12,12,13,13,14,14,15,15,16,16,17,17,18,18,19,19,20,20,21,21,22,22,23,23,24,24,25,25,26,26,27,27,28,28,29,29,30,30,31,31,32,32],"right_children":[2,4,-1,6,8,10,12,14,16,18,20,22,24,26,28,30,32,34,36,38,40,42,44,46,48,50,52,54,56,58,60,62,64,-1,-1,-1,-1,-1,-1,-1,-1,-1,-1,-1,-1,-1,-1,-1,-1,-1,-1,-1,-1,-1,-1,-1,-1,-1,-1,-1,-1,-1,-1,-1,-1],"split_conditions":[2.012E3,5.1724136E-1,-5.39473E-1,7.6E1,3E0,2.6E1,8.3E1,3.5E1,3E1,2E0,2E0,3E0,1.6E1,6.4E1,4.8E1,6.3E1,2E0,6.7E1,2E0,1.3043478E-1,6.7E1,8.6956516E-2,2E0,1.4E1,8.7E1,1E0,1.6E1,4.5E1,3.4E2,2.4E1,1.2E1,2E0,1E0,2.8805605E-1,1.5149671E-1,3.479632E-1,2.3416263E-1,1.6132261E-1,-4.343953E-2,2.680125E-1,1.5241835E-1,1.0109222E-1,-1.3323481E-1,2.2816388E-1,2.931206E-2,1.24095686E-1,-2.7711233E-1,-9.389169E-2,-2.513818E-1,6.5621175E-2,-2.9352066E-1,-8.920217E-2,-3.237542E-1,5.903045E-2,-2.4045427E-1,-3.5991567E-1,-5.956236E-2,2.86568E-1,9.134696E-2,1.8865688E-1,-5.5832816E-3,-6.8258164E-3,-3.1806058E-1,-1.9072114E-1,4.582214E-2],"split_indices":[5,6,0,0,14,7,0,3,7,8,9,14,7,0,0,0,9,0,2,6,0,6,2,4,0,16,3,7,7,4,7,1,11,0,0,0,0,0,0,0,0,0,0,0,0,0,0,0,0,0,0,0,0,0,0,0,0,0,0,0,0,0,0,0,0],"split_type":[0,0,0,0,0,0,0,0,0,0,0,0,0,0,0,0,0,0,0,0,0,0,0,0,0,0,0,0,0,0,0,0,0,0,0,0,0,0,0,0,0,0,0,0,0,0,0,0,0,0,0,0,0,0,0,0,0,0,0,0,0,0,0,0,0],"sum_hessian":[6.040583E3,4.735467E3,1.3051163E3,3.6633804E3,1.0720863E3,3.151867E3,5.1151346E2,7.4133655E2,3.307498E2,2.181682E3,9.701851E2,3.4257367E2,1.6893977E2,3.2257785E2,4.1875873E2,1.4372736E2,1.8702243E2,2.992598E2,1.8824221E3,3.579738E2,6.1221136E2,1.4938173E2,1.9319196E2,6.057076E1,1.0836901E2,1.15007576E2,2.0757028E2,4.6586662E1,3.7217206E2,6.8800835E1,7.492653E1,6.545261E1,1.21569824E2,2.4373932E2,5.5520473E1,1.7830856E3,9.933656E1,2.7573093E2,8.224284E1,5.0065372E2,1.11557655E2,1.2664859E2,2.2733133E1,1.6577632E2,2.7415628E1,5.8103672E1,2.4670866E0,6.57439E1,4.262511E1,1.0569835E2,9.309223E0,9.38333E1,1.1373698E2,2.2015198E1,2.4571465E1,3.5260587E2,1.9566198E1,6.1040146E1,7.7606854E0,2.9046331E1,4.5880196E1,3.3128647E1,3.232396E1,1.7513689E1,1.0405614E2],"tree_param":{"num_deleted":"0","num_feature":"17","num_nodes":"65","size_leaf_vector":"1"}},{"base_weights":[4.5409597E-2,4.5168906E-1,-4.3948364E-1,7.31145E-1,-3.359732E-1,8.46311E-1,2.44971E-1,-5.6875575E-1,8.934242E-2,1.0039322E0,5.9123486E-1,6.228182E-1,3.2778334E-2,1.552188E-1,-6.4517975E-1,1.7538382E-1,-6.3233733E-1,7.744367E-1,1.0393701E0,3.484378E-1,7.390242E-1,3.6589321E-1,8.198735E-1,1.505414E-1,-5.2073216E-1,5.633481E-1,-6.245557E-2,-4.123618E-1,-8.82519E-1,4.0806603E-1,-5.5744063E-2,-1.1764244E0,-3.099776E-1,2.4561961E-1,-2.2993715E-1,3.2627186E-1,2.7899405E-1,6.337391E-2,2.1631786E-1,2.7250555E-1,1.5838596E-1,1.2498177E-1,-2.9480344E-1,1.4668521E-1,2.888689E-1,-8.4879845E-2,6.729157E-2,-7.4280776E-2,-2.776518E-1,2.016628E-1,-2.4725902E-1,-3.2658514E-1,3.5771453E-3,-2.8870797E-1,-8.198994E-2,-1.5516597E-1,-3.0050397E-1,1.621423E-1,-1.6519627E-2,-1.7561528E-1,3.792955E-2,-4.284123E-1,-1.6273691E-1,1.34076355E-2,-2.9481602E-1],"categories":[],"categories_nodes":[],"categories_segments":[],"categories_sizes":[],"default_left":[0,0,0,0,0,0,1,0,1,0,0,0,0,0,0,0,0,0,0,0,0,0,0,0,0,0,0,0,0,0,0,0,0,0,0,0,0,0,0,0,0,0,0,0,0,0,0,0,0,0,0,0,0,0,0,0,0,0,0,0,0,0,0,0,0],"id":2,"left_children":[1,3,-1,5,7,9,11,13,15,17,19,21,23,25,27,29,31,33,35,37,39,41,43,45,47,49,51,53,55,57,59,61,63,-1,-1,-1,-1,-1,-1,-1,-1,-1,-1,-1,-1,-1,-1,-1,-1,-1,-1,-1,-1,-1,-1,-1,-1,-1,-1,-1,-1,-1,-1,-1,-1],"loss_changes":[3.3213547E3,9.390947E2,0E0,1.7608337E2,1.1070588E2,1.0173572E2,4.8438812E1,4.0072998E1,2.4712856E1,1.1977173E1,3.471048E1,1.0701775E1,2.5376175E1,6.2351027E0,3.5755737E1,1.9102623E1,7.075821E0,1.5244217E1,6.1518555E0,1.879414E1,2.1139008E1,6.983639E0,5.3116684E0,1.032074E1,7.322918E0,4.2357616E0,3.555521E0,2.5118488E1,1.3533798E1,1.0878696E1,1.7332247E1,1.6859455E0,6.723997E0,0E0,0E0,0E0,0E0,0E0,0E0,0E0,0E0,0E0,0E0,0E0,0E0,0E0,0E0,0E0,0E0,0E0,0E0,0E0,0E0,0E0,0E0,0E0,0E0,0E0,0E0,0E0,0E0,0E0,0E0,0E0,0E0],"parents":[2147483647,0,0,1,1,3,3,4,4,5,5,6,6,7,7,8,8,9,9,10,10,11,11,12,12,13,13,14,14,15,15,16,16,17,17,18,18,19,19,20,20,21,21,22,22,23,23,24,24,25,25,26,26,27,27,28,28,29,29,30,30,31,31,32,32],"right_children":[2,4,-1,6,8,10,12,14,16,18,20,22,24,26,28,30,32,34,36,38,40,42,44,46,48,50,52,54,56,58,60,62,64,-1,-1,-1,-1,-1,-1,-1,-1,-1,-1,-1,-1,-1,-1,-1,-1,-1,-1,-1,-1,-1,-1,-1,-1,-1,-1,-1,-1,-1,-1,-1,-1],"split_conditions":[2.012E3,4E0,-4.3948364E-1,7.4E1,3E0,2.3E1,1.4E1,1.1E1,9.1304344E-1,2E0,2E0,3E0,8.6E1,6.6E1,7E1,3.3E1,2E0,4.9999994E-1,6.4E1,2E0,5.8E1,1.8E1,2E0,2E0,3.1E1,1E0,1E0,1E0,2.3E1,7.6E1,2E0,1.6E1,6.5E1,2.4561961E-1,-2.2993715E-1,3.2627186E-1,2.7899405E-1,6.337391E-2,2.1631786E-1,2.7250555E-1,1.5838596E-1,1.2498177E-1,-2.9480344E-1,1.4668521E-1,2.888689E-1,-8.4879845E-2,6.729157E-2,-7.4280776E-2,-2.776518E-1,2.016628E-1,-2.4725902E-1,-3.2658514E-1,3.5771453E-3,-2.8870797E-1,-8.198994E-2,-1.5516597E-1,-3.0050397E-1,1.621423E-1,-1.6519627E-2,-1.7561528E-1,3.792955E-2,-4.284123E-1,-1.6273691E-1,1.34076355E-2,-2.9481602E-1],"split_indices":[5,1,0,0,14,7,7,7,6,8,9,14,0,0,0,3,9,6,0,10,0,4,4,8,7,16,3,11,3,0,8,1,0,0,0,0,0,0,0,0,0,0,0,0,0,0,0,0,0,0,0,0,0,0,0,0,0,0,0,0,0,0,0,0,0],"split_type":[0,0,0,0,0,0,0,0,0,0,0,0,0,0,0,0,0,0,0,0,0,0,0,0,0,0,0,0,0,0,0,0,0,0,0,0,0,0,0,0,0,0,0,0,0,0,0,0,0,0,0,0,0,0,0,0,0,0,0,0,0,0,0,0,0],"sum_hessian":[5.4105894E3,4.2642295E3,1.1463597E3,3.1475698E3,1.1166595E3,2.5441624E3,6.0340753E2,7.2145667E2,3.9520288E2,1.5706575E3,9.735048E2,2.163041E2,3.8710345E2,6.8788025E1,6.5266864E2,3.5378076E2,4.1422108E1,2.1315009E2,1.3575073E3,3.696234E2,6.038814E2,9.512928E1,1.2117481E2,3.197933E2,6.731014E1,2.3374287E1,4.5413734E1,3.3085443E2,3.2181424E2,1.759161E2,1.7786467E2,1.4425301E1,2.6996809E1,2.0764955E2,5.500533E0,9.3608105E2,4.2142627E2,2.7130246E2,9.832093E1,3.332415E2,2.7063992E2,9.234765E1,2.781633E0,3.790042E1,8.327439E1,4.6092777E1,2.7370053E2,4.1153E1,2.6157143E1,2.215188E1,1.222406E0,2.1476784E0,4.3266056E1,6.557626E1,2.6527817E2,8.046906E1,2.4134517E2,1.3667422E2,3.924188E1,4.495466E1,1.3291002E2,9.430051E0,4.9952497E0,1.8288618E1,8.70819E0],"tree_param":{"num_deleted":"0","num_feature":"17","num_nodes":"65","size_leaf_vector":"1"}},{"base_weights":[3.7885375E-2,3.6421746E-1,-3.8971096E-1,6.01E-1,-2.637012E-1,7.331595E-1,2.616053E-1,-4.1679835E-1,7.853431E-2,8.6825436E-1,4.3427908E-1,5.932337E-1,8.412442E-2,-7.495512E-1,-2.7665246E-1,3.4893063E-1,-1.03759244E-1,6.195659E-1,9.1574967E-1,6.64322E-1,2.4579549E-1,7.694361E-1,3.3707038E-1,1.9387159E-1,-2.5752008E-1,-5.9140944E-1,-1.0785048E0,1.7247276E-1,-3.9962834E-1,6.384606E-1,1.4000973E-1,-5.9623282E-2,-1.2571508E0,2.0302369E-1,1.6378522E-2,2.8785697E-1,2.0937918E-1,2.3216954E-1,1.1226576E-1,-2.9941078E-2,1.189339E-1,2.394254E-1,4.2763475E-2,1.1468297E-1,-1.6399577E-1,-3.8346E-3,1.09003514E-1,-4.11649E-2,-1.8070951E-1,-9.097216E-2,-2.6142105E-1,1.5991992E-1,-3.401496E-1,8.572897E-2,-2.8024837E-1,1.263422E-2,-1.4945306E-1,2.2356969E-1,6.380966E-3,-1.6368797E-1,6.8668656E-2,5.7066377E-2,-7.64728E-2,1.1937491E-1,-5.071444E-1],"categories":[],"categories_nodes":[],"categories_segments":[],"categories_sizes":[],"default_left":[0,0,0,0,0,0,1,0,0,0,0,0,0,0,0,0,0,0,0,0,0,0,0,0,0,0,0,0,0,0,0,0,0,0,0,0,0,0,0,0,0,0,0,0,0,0,0,0,0,0,0,0,0,0,0,0,0,0,0,0,0,0,0,0,0],"id":3,"left_children":[1,3,-1,5,7,9,11,13,15,17,19,21,23,25,27,29,31,33,35,37,39,41,43,45,47,49,51,53,55,57,59,61,63,-1,-1,-1,-1,-1,-1,-1,-1,-1,-1,-1,-1,-1,-1,-1,-1,-1,-1,-1,-1,-1,-1,-1,-1,-1,-1,-1,-1,-1,-1,-1,-1],"loss_changes":[2.0903193E3,5.7273987E2,0E0,1.2525873E2,5.532267E1,8.087952E1,4.617745E1,3.3800446E1,1.615435E1,1.5791138E1,2.7086548E1,1.2091675E1,1.9276077E1,1.0574402E1,2.8497608E1,7.88953E0,9.907166E0,7.2375336E0,1.0398193E1,8.688797E0,1.810724E1,2.783867E0,4.735079E0,1.3616837E1,5.1072702E0,1.1658733E1,6.7353973E0,1.4225727E1,1.7624825E1,3.6090164E0,4.872407E0,9.314507E0,5.8201303E0,0E0,0E0,0E0,0E0,0E0,0E0,0E0,0E0,0E0,0E0,0E0,0E0,0E0,0E0,0E0,0E0,0E0,0E0,0E0,0E0,0E0,0E0,0E0,0E0,0E0,0E0,0E0,0E0,0E0,0E0,0E0,0E0],"parents":[2147483647,0,0,1,1,3,3,4,4,5,5,6,6,7,7,8,8,9,9,10,10,11,11,12,12,13,13,14,14,15,15,16,16,17,17,18,18,19,19,20,20,21,21,22,22,23,23,24,24,25,25,26,26,27,27,28,28,29,29,30,30,31,31,32,32],"right_children":[2,4,-1,6,8,10,12,14,16,18,20,22,24,26,28,30,32,34,36,38,40,42,44,46,48,50,52,54,56,58,60,62,64,-1,-1,-1,-1,-1,-1,-1,-1,-1,-1,-1,-1,-1,-1,-1,-1,-1,-1,-1,-1,-1,-1,-1,-1,-1,-1,-1,-1,-1,-1,-1,-1],"split_conditions":[2.012E3,4.999999E-1,-3.8971096E-1,7E1,3E0,2.9E1,1.4E1,2E0,3E1,2E0,6E0,7.8E1,8.3E1,7.7E1,5.6E1,6.2E1,5E0,2.105263E-1,1E1,2E0,2E0,2E0,1.7857142E-1,3E0,3.7E1,4.7E1,6E0,1E0,1.5E1,2.2E1,2E0,5.6E1,9.999995E-1,2.0302369E-1,1.6378522E-2,2.8785697E-1,2.0937918E-1,2.3216954E-1,1.1226576E-1,-2.9941078E-2,1.189339E-1,2.394254E-1,4.2763475E-2,1.1468297E-1,-1.6399577E-1,-3.8346E-3,1.09003514E-1,-4.11649E-2,-1.8070951E-1,-9.097216E-2,-2.6142105E-1,1.5991992E-1,-3.401496E-1,8.572897E-2,-2.8024837E-1,1.263422E-2,-1.4945306E-1,2.2356969E-1,6.380966E-3,-1.6368797E-1,6.8668656E-2,5.7066377E-2,-7.64728E-2,1.1937491E-1,-5.071444E-1],"split_indices":[5,6,0,0,14,7,7,9,7,8,4,0,0,0,0,0,14,6,4,2,8,2,6,14,7,3,3,16,3,4,8,0,6,0,0,0,0,0,0,0,0,0,0,0,0,0,0,0,0,0,0,0,0,0,0,0,0,0,0,0,0,0,0,0,0],"split_type":[0,0,0,0,0,0,0,0,0,0,0,0,0,0,0,0,0,0,0,0,0,0,0,0,0,0,0,0,0,0,0,0,0,0,0,0,0,0,0,0,0,0,0,0,0,0,0,0,0,0,0,0,0,0,0,0,0,0,0,0,0,0,0,0,0],"sum_hessian":[4.789143E3,3.8500935E3,9.390498E2,2.7958472E3,1.0542465E3,2.0114381E3,7.84409E2,7.2825E2,3.2599643E2,1.3839728E3,6.274653E2,2.7263666E2,5.1177237E2,2.1453186E2,5.1371814E2,1.309073E2,1.9508913E2,2.2418257E2,1.1597903E3,2.814423E2,3.4602295E2,1.6034164E2,1.12295E2,3.8767218E2,1.2410019E2,1.4677083E2,6.776103E1,1.1033967E2,4.0337848E2,5.400679E1,7.6900505E1,1.8891187E2,6.1772537E0,2.033991E2,2.078348E1,9.628817E2,1.9690851E2,2.030714E2,7.83709E1,1.05147606E2,2.4087535E2,1.530732E2,7.268443E0,1.07369995E2,4.925009E0,1.7509198E2,2.1258018E2,9.3039894E1,3.10603E1,7.335606E1,7.341478E1,1.9625001E0,6.579853E1,1.0076566E2,9.574006E0,7.368028E1,3.2969818E2,4.5864876E1,8.141913E0,8.235556E0,6.866495E1,8.289009E1,1.0602178E2,1.298702E0,4.8785515E0],"tree_param":{"num_deleted":"0","num_feature":"17","num_nodes":"65","size_leaf_vector":"1"}},{"base_weights":[3.0078653E-2,2.9138118E-1,-3.6055252E-1,5.0003463E-1,-1.8898325E-1,6.20494E-1,1.6640311E-1,-6.876641E-2,-4.3812647E-1,7.980672E-1,3.843083E-1,3.8965726E-1,-2.0566799E-2,-5.096759E-1,2.753501E-2,2.3967074E-1,-5.20095E-1,5.2035886E-1,8.47814E-1,4.0451983E-1,-1.0850917E0,4.2203006E-1,-6.182271E-1,-1.7001133E-1,1.6526328E-1,-3.1625608E-1,-7.8002346E-1,-1.857217E-1,1.7904405E-1,3.1574973E-1,-3.0025744E-1,-4.2987376E-1,-9.804082E-1,1.6807699E-1,-1.460774E-1,2.609681E-1,1.3021241E-1,5.936052E-2,1.6359729E-1,-4.7661114E-1,-5.8264796E-2,7.128218E-2,1.6707148E-1,-2.9250008E-1,-5.8183905E-2,-2.9963141E-2,-1.8447131E-1,8.98466E-2,-6.306313E-2,-1.16682984E-1,1.6597918E-1,-2.7559552E-1,1.05346404E-1,4.7995254E-2,-1.1361935E-1,-3.8613047E-2,9.924301E-2,1.3658935E-1,-2.2674585E-3,-2.8662637E-1,-1.0170859E-1,-1.7009756E-2,-3.0068028E-1],"categories":[],"categories_nodes":[],"categories_segments":[],"categories_sizes":[],"default_left":[0,0,0,0,0,0,1,0,0,0,0,0,0,0,0,0,0,0,0,0,0,0,0,0,0,0,0,0,0,0,0,0,0,0,0,0,0,0,0,0,0,0,0,0,0,0,0,0,0,0,0,0,0,0,0,0,0,0,0,0,0,0,0],"id":4,"left_children":[1,3,-1,5,7,9,11,13,15,17,19,21,23,25,27,29,31,33,35,37,39,41,43,45,47,49,51,53,55,57,-1,59,61,-1,-1,-1,-1,-1,-1,-1,-1,-1,-1,-1,-1,-1,-1,-1,-1,-1,-1,-1,-1,-1,-1,-1,-1,-1,-1,-1,-1,-1,-1],"loss_changes":[1.3678298E3,3.5145163E2,0E0,9.812787E1,3.178683E1,7.4995605E1,2.7130207E1,3.048904E1,1.932338E1,1.37052E1,2.3380959E1,9.925179E0,9.874849E0,6.4837914E0,1.9096924E1,3.8991842E0,1.2394531E1,6.628624E0,7.541626E0,2.2085808E1,4.5158186E0,7.0207253E0,1.2675982E0,6.085903E0,8.053597E0,5.0637164E0,8.633591E0,1.64455E1,1.617772E1,1.6516716E0,0E0,1.2080025E1,9.4854736E-1,0E0,0E0,0E0,0E0,0E0,0E0,0E0,0E0,0E0,0E0,0E0,0E0,0E0,0E0,0E0,0E0,0E0,0E0,0E0,0E0,0E0,0E0,0E0,0E0,0E0,0E0,0E0,0E0,0E0,0E0],"parents":[2147483647,0,0,1,1,3,3,4,4,5,5,6,6,7,7,8,8,9,9,10,10,11,11,12,12,13,13,14,14,15,15,16,16,17,17,18,18,19,19,20,20,21,21,22,22,23,23,24,24,25,25,26,26,27,27,28,28,29,29,31,31,32,32],"right_children":[2,4,-1,6,8,10,12,14,16,18,20,22,24,26,28,30,32,34,36,38,40,42,44,46,48,50,52,54,56,58,-1,60,62,-1,-1,-1,-1,-1,-1,-1,-1,-1,-1,-1,-1,-1,-1,-1,-1,-1,-1,-1,-1,-1,-1,-1,-1,-1,-1,-1,-1,-1,-1],"split_conditions":[2.012E3,4E0,-3.6055252E-1,7.2E1,7.5E1,2.3E1,1.7E1,1E0,1E1,2E0,3.8E1,8.9E1,3E0,5.7E1,3E0,1E0,9.1E1,4.9999994E-1,2E0,2E0,9.7E1,1E0,2.011E3,3.076923E-1,2E0,5.5E1,9.9E1,2.9E1,2E0,8E0,-3.0025744E-1,2E0,8E0,1.6807699E-1,-1.460774E-1,2.609681E-1,1.3021241E-1,5.936052E-2,1.6359729E-1,-4.7661114E-1,-5.8264796E-2,7.128218E-2,1.6707148E-1,-2.9250008E-1,-5.8183905E-2,-2.9963141E-2,-1.8447131E-1,8.98466E-2,-6.306313E-2,-1.16682984E-1,1.6597918E-1,-2.7559552E-1,1.05346404E-1,4.7995254E-2,-1.1361935E-1,-3.8613047E-2,9.924301E-2,1.3658935E-1,-2.2674585E-3,-2.8662637E-1,-1.0170859E-1,-1.7009756E-2,-3.0068028E-1],"split_indices":[5,1,0,0,0,7,7,11,7,8,4,0,14,3,4,4,0,6,2,9,4,16,5,6,2,7,4,3,9,3,0,8,1,0,0,0,0,0,0,0,0,0,0,0,0,0,0,0,0,0,0,0,0,0,0,0,0,0,0,0,0,0,0],"split_type":[0,0,0,0,0,0,0,0,0,0,0,0,0,0,0,0,0,0,0,0,0,0,0,0,0,0,0,0,0,0,0,0,0,0,0,0,0,0,0,0,0,0,0,0,0,0,0,0,0,0,0,0,0,0,0,0,0,0,0,0,0,0,0],"sum_hessian":[4.247099E3,3.504519E3,7.425798E2,2.4432266E3,1.0612927E3,1.7944656E3,6.4876086E2,7.1673096E2,3.4456174E2,1.0229754E3,7.714902E2,2.9519498E2,3.535659E2,1.2771302E2,5.8901794E2,3.696602E1,3.0759573E2,1.5715086E2,8.658245E2,7.6173724E2,9.752946E0,2.865717E2,8.623288E0,1.9601544E2,1.5755046E2,7.5713615E1,5.199941E1,2.4456061E2,3.4445734E2,3.5532364E1,1.4336528E0,2.588041E2,4.8791637E1,1.5159027E2,5.5605817E0,8.209168E2,4.490775E1,3.096642E2,4.52073E2,5.7303014E0,4.022645E0,1.2221759E2,1.6435411E2,3.9792087E0,4.6440797E0,1.7038065E2,2.5634792E1,1.1620982E2,4.134064E1,7.038269E1,5.330922E0,4.6489864E1,5.5095444E0,8.768181E1,1.568788E2,1.1381428E2,2.3064307E2,2.4534424E1,1.0997941E1,3.6740417E1,2.2206367E2,1.2110325E0,4.7580605E1],"tree_param":{"num_deleted":"0","num_feature":"17","num_nodes":"63","size_leaf_vector":"1"}},{"base_weights":[2.217122E-2,2.2926317E-1,-3.4196675E-1,4.4374272E-1,-9.572399E-2,6.050446E-1,2.1701185E-1,-2.2956936E-1,1.1051321E-1,7.525906E-1,3.3094832E-1,2.9557312E-1,-1.7998676E-1,1.9465831E-1,-2.816844E-1,2.5087452E-1,-9.022912E-2,5.5436414E-1,8.290991E-1,5.105498E-1,4.7527518E-2,1.23916216E-1,4.359117E-1,-6.9685394E-1,-1.146176E-2,3.1865457E-1,-6.131317E-1,-3.2017983E-2,-3.8140348E-1,3.5157493E-1,-8.875635E-2,-1.4543523E0,-5.0876223E-2,1.7470193E-1,-1.897523E-2,2.514506E-1,-9.776552E-2,1.3206388E-1,3.065037E-1,-1.564123E-1,4.075699E-2,7.591209E-2,3.080174E-3,1.4718238E-1,4.5224492E-4,-2.99368E-1,5.8608945E-2,-6.255998E-2,1.2588927E-1,3.6893744E-2,1.8703239E-1,7.918525E-2,-3.5163203E-1,4.2527854E-3,-1.36685E-1,-1.24629036E-1,1.0638921E-1,1.1031602E-1,-4.3026623E-1,1.5617633E-2,-2.1892688E-1,-1.493844E-1,-5.5524606E-1,-1.1775181E-1,2.130245E-2],"categories":[],"categories_nodes":[],"categories_segments":[],"categories_sizes":[],"default_left":[0,0,0,0,0,1,1,0,0,0,0,0,0,1,0,0,0,0,0,0,0,1,0,0,0,0,0,0,1,0,1,0,0,0,0,0,0,0,0,0,0,0,0,0,0,0,0,0,0,0,0,0,0,0,0,0,0,0,0,0,0,0,0,0,0],"id":5,"left_children":[1,3,-1,5,7,9,11,13,15,17,19,21,23,25,27,29,31,33,35,37,39,41,43,45,47,49,51,53,55,57,59,61,63,-1,-1,-1,-1,-1,-1,-1,-1,-1,-1,-1,-1,-1,-1,-1,-1,-1,-1,-1,-1,-1,-1,-1,-1,-1,-1,-1,-1,-1,-1,-1,-1],"loss_changes":[9.1668256E2,2.253855E2,0E0,7.110208E1,3.5528076E1,4.5754578E1,2.5354168E1,1.7305931E1,1.4304181E1,1.0743317E1,2.03288E1,1.6269165E1,1.1719254E1,8.805378E0,1.7299015E1,1.0242125E1,1.1161932E1,3.6432648E0,5.835022E0,8.345524E0,7.9198294E0,4.4905834E0,8.84771E0,9.08189E0,8.799434E0,4.4069467E0,6.085214E0,3.9111326E0,1.2589066E1,7.1725826E0,6.272964E0,1.2900009E0,8.54195E0,0E0,0E0,0E0,0E0,0E0,0E0,0E0,0E0,0E0,0E0,0E0,0E0,0E0,0E0,0E0,0E0,0E0,0E0,0E0,0E0,0E0,0E0,0E0,0E0,0E0,0E0,0E0,0E0,0E0,0E0,0E0,0E0],"parents":[2147483647,0,0,1,1,3,3,4,4,5,5,6,6,7,7,8,8,9,9,10,10,11,11,12,12,13,13,14,14,15,15,16,16,17,17,18,18,19,19,20,20,21,21,22,22,23,23,24,24,25,25,26,26,27,27,28,28,29,29,30,30,31,31,32,32],"right_children":[2,4,-1,6,8,10,12,14,16,18,20,22,24,26,28,30,32,34,36,38,40,42,44,46,48,50,52,54,56,58,60,62,64,-1,-1,-1,-1,-1,-1,-1,-1,-1,-1,-1,-1,-1,-1,-1,-1,-1,-1,-1,-1,-1,-1,-1,-1,-1,-1,-1,-1,-1,-1,-1,-1],"split_conditions":[2.012E3,2.105263E-1,-3.4196675E-1,6.6E1,3E0,2.7E1,3.6E1,4.7E1,4E1,2E0,1E1,3E0,2E0,7E0,2.3E1,7.5E1,3.3E1,2E0,3.6E1,1.81E2,1E0,1.6E1,8.3E1,2E0,5.4E1,2E0,4.1E1,9E1,2.04E2,3E0,7.9999983E-1,9E0,2E0,1.7470193E-1,-1.897523E-2,2.514506E-1,-9.776552E-2,1.3206388E-1,3.065037E-1,-1.564123E-1,4.075699E-2,7.591209E-2,3.080174E-3,1.4718238E-1,4.5224492E-4,-2.99368E-1,5.8608945E-2,-6.255998E-2,1.2588927E-1,3.6893744E-2,1.8703239E-1,7.918525E-2,-3.5163203E-1,4.2527854E-3,-1.36685E-1,-1.24629036E-1,1.0638921E-1,1.1031602E-1,-4.3026623E-1,1.5617633E-2,-2.1892688E-1,-1.493844E-1,-5.5524606E-1,-1.1775181E-1,2.130245E-2],"split_indices":[5,6,0,0,14,7,7,0,3,9,4,14,8,1,7,0,0,2,4,3,15,7,0,10,3,10,3,0,7,2,6,4,8,0,0,0,0,0,0,0,0,0,0,0,0,0,0,0,0,0,0,0,0,0,0,0,0,0,0,0,0,0,0,0,0],"split_type":[0,0,0,0,0,0,0,0,0,0,0,0,0,0,0,0,0,0,0,0,0,0,0,0,0,0,0,0,0,0,0,0,0,0,0,0,0,0,0,0,0,0,0,0,0,0,0,0,0,0,0,0,0,0,0,0,0,0,0,0,0,0,0,0,0],"sum_hessian":[3.8070554E3,3.2318982E3,5.7515717E2,1.9467498E3,1.2851484E3,1.1365276E3,8.102221E2,7.792875E2,5.0586096E2,7.376857E2,3.9884186E2,6.765888E2,1.3363332E2,8.495994E1,6.943275E2,2.9755643E2,2.0830453E2,2.0772794E2,5.299578E2,2.4364476E2,1.5519711E2,3.0518314E2,3.7140564E2,3.208707E1,1.0154625E2,7.417895E1,1.0780992E1,1.9854701E2,4.9578052E2,2.2948041E2,6.807603E1,4.8325634E0,2.0347198E2,1.9878102E2,8.946909E0,5.261009E2,3.8568928E0,2.1580846E2,2.7836298E1,2.0198952E1,1.3499815E2,1.4229076E2,1.6289238E2,3.2975638E2,4.1649273E1,2.390346E1,8.183613E0,7.004284E1,3.150341E1,4.60305E1,2.8148445E1,4.401864E0,6.3791275E0,1.798957E2,1.8651304E1,4.7428986E2,2.149069E1,2.2821126E2,1.2691407E0,5.6567944E1,1.1508085E1,2.0773375E0,2.755226E0,5.2920574E1,1.505514E2],"tree_param":{"num_deleted":"0","num_feature":"17","num_nodes":"65","size_leaf_vector":"1"}},{"base_weights":[1.5871301E-2,1.7846371E-1,-3.2948494E-1,3.7300807E-1,-4.8659638E-2,5.1150817E-1,1.1927707E-1,8.940592E-2,-2.1739565E-1,7.1291065E-1,3.5390484E-1,1.8923208E-1,-2.1511963E-1,2.8172532E-1,-3.8047757E-2,-2.533969E-1,3.8089436E-1,7.4354035E-1,1.3526806E-1,1.7505732E-1,4.8392814E-1,-6.5698326E-2,2.8067583E-1,-2.500996E-1,6.6219795E-1,-1.5665619E-1,3.8196072E-1,-4.6014756E-1,3.0700581E-2,-4.0897024E-1,-8.660456E-2,1.2115672E0,-7.8172445E-1,2.2714971E-1,-1.0798425E-1,1.2036568E-1,-2.4590324E-1,3.7110485E-2,2.701587E-1,2.0778973E-1,9.702778E-2,-8.055E-2,5.063611E-2,1.10633396E-1,-2.9161407E-2,-6.2200617E-2,-3.5647896E-1,3.0185723E-1,-5.2366905E-2,2.8079906E-2,-1.7723745E-1,5.519003E-2,1.678757E-1,1.172654E-1,-1.7316341E-1,2.2451984E-2,-1.4663412E-1,-9.735016E-2,-2.544298E-1,-4.2368914E-3,-2.1072741E-1,4.9151883E-1,1.2127114E-1,-3.520465E-1,-9.888632E-2],"categories":[],"categories_nodes":[],"categories_segments":[],"categories_sizes":[],"default_left":[0,0,0,0,0,1,0,0,1,0,0,0,0,0,0,0,0,0,0,0,0,0,0,0,0,1,0,0,0,1,0,0,0,0,0,0,0,0,0,0,0,0,0,0,0,0,0,0,0,0,0,0,0,0,0,0,0,0,0,0,0,0,0,0,0],"id":6,"left_children":[1,3,-1,5,7,9,11,13,15,17,19,21,23,25,27,29,31,33,35,37,39,41,43,45,47,49,51,53,55,57,59,61,63,-1,-1,-1,-1,-1,-1,-1,-1,-1,-1,-1,-1,-1,-1,-1,-1,-1,-1,-1,-1,-1,-1,-1,-1,-1,-1,-1,-1,-1,-1,-1,-1],"loss_changes":[6.268148E2,1.3343253E2,0E0,5.7095795E1,3.24937E1,3.313498E1,1.3506078E1,1.8820038E1,1.361429E1,8.05188E0,1.3683472E1,1.1128101E1,3.2361178E0,1.3504513E1,1.3432023E1,1.5340824E1,3.573401E1,6.8481903E0,6.5319676E0,9.232927E0,1.1240952E1,6.06688E0,1.1719454E1,3.6429763E0,1.3587854E0,6.3185935E0,8.665287E0,6.6838026E0,9.17547E0,1.1087425E1,1.2811297E1,6.7125206E0,2.379552E0,0E0,0E0,0E0,0E0,0E0,0E0,0E0,0E0,0E0,0E0,0E0,0E0,0E0,0E0,0E0,0E0,0E0,0E0,0E0,0E0,0E0,0E0,0E0,0E0,0E0,0E0,0E0,0E0,0E0,0E0,0E0,0E0],"parents":[2147483647,0,0,1,1,3,3,4,4,5,5,6,6,7,7,8,8,9,9,10,10,11,11,12,12,13,13,14,14,15,15,16,16,17,17,18,18,19,19,20,20,21,21,22,22,23,23,24,24,25,25,26,26,27,27,28,28,29,29,30,30,31,31,32,32],"right_children":[2,4,-1,6,8,10,12,14,16,18,20,22,24,26,28,30,32,34,36,38,40,42,44,46,48,50,52,54,56,58,60,62,64,-1,-1,-1,-1,-1,-1,-1,-1,-1,-1,-1,-1,-1,-1,-1,-1,-1,-1,-1,-1,-1,-1,-1,-1,-1,-1,-1,-1,-1,-1,-1,-1],"split_conditions":[2.012E3,1.2499999E-1,-3.2948494E-1,7E1,3.8E1,1.7E1,2E0,6.1E1,9.9E2,2E0,2E0,2E0,2E1,1E0,2E0,8E0,9.98E2,3.2E1,1E0,1.21E2,5.3E1,1E0,8.4E1,1.5E1,2.5E1,3E0,3E0,9E0,9E1,7.9E1,7.9E1,9.93E2,2E0,2.2714971E-1,-1.0798425E-1,1.2036568E-1,-2.4590324E-1,3.7110485E-2,2.701587E-1,2.0778973E-1,9.702778E-2,-8.055E-2,5.063611E-2,1.10633396E-1,-2.9161407E-2,-6.2200617E-2,-3.5647896E-1,3.0185723E-1,-5.2366905E-2,2.8079906E-2,-1.7723745E-1,5.519003E-2,1.678757E-1,1.172654E-1,-1.7316341E-1,2.2451984E-2,-1.4663412E-1,-9.735016E-2,-2.544298E-1,-4.2368914E-3,-2.1072741E-1,4.9151883E-1,1.2127114E-1,-3.520465E-1,-9.888632E-2],"split_indices":[5,6,0,0,3,7,2,0,3,2,9,9,4,11,8,4,3,4,15,3,0,16,0,4,3,1,14,7,0,3,0,3,9,0,0,0,0,0,0,0,0,0,0,0,0,0,0,0,0,0,0,0,0,0,0,0,0,0,0,0,0,0,0,0,0],"split_type":[0,0,0,0,0,0,0,0,0,0,0,0,0,0,0,0,0,0,0,0,0,0,0,0,0,0,0,0,0,0,0,0,0,0,0,0,0,0,0,0,0,0,0,0,0,0,0,0,0,0,0,0,0,0,0,0,0,0,0,0,0,0,0,0,0],"sum_hessian":[3.4580579E3,3.0184106E3,4.396473E2,1.6254639E3,1.3929468E3,1.0508418E3,5.746221E2,7.6635724E2,6.265895E2,4.597721E2,5.910697E2,4.7556836E2,9.90537E1,3.049687E2,4.6138858E2,5.9156915E2,3.5020382E1,4.363474E2,2.3424665E1,2.4980644E2,3.4126328E2,1.256257E2,3.499427E2,9.594323E1,3.1104739E0,5.6649235E1,2.4831944E2,6.382483E1,3.9756375E2,3.0532727E2,2.8624185E2,2.0401634E1,1.4618749E1,4.3133536E2,5.0120697E0,1.8775553E1,4.6491113E0,2.3438498E2,1.5421464E1,1.4691339E2,1.9434987E2,6.728617E1,5.8339527E1,2.8379947E2,6.614322E1,9.292829E1,3.0149395E0,2.0607848E0,1.0496889E0,3.6432335E1,2.0216902E1,1.1838947E2,1.2992998E2,7.4349637E0,5.6389866E1,3.6721783E2,3.0345903E1,2.575287E2,4.7798576E1,2.5701437E2,2.9227478E1,1.2672427E1,7.729208E0,6.9771647E0,7.6415834E0],"tree_param":{"num_deleted":"0","num_feature":"17","num_nodes":"65","size_leaf_vector":"1"}},{"base_weights":[1.0868289E-2,1.3733806E-1,-3.2078448E-1,3.2215258E-1,-1.7287938E-2,4.9257052E-1,1.4037547E-1,-2.0014451E-1,6.807499E-2,6.426953E-1,3.0339026E-1,2.0752239E-1,-1.639441E-1,-3.7243244E-1,1.8918334E-1,2.8568363E-1,-3.1859323E-2,6.6939616E-1,1.6908881E-1,3.7686712E-1,-2.260956E-1,2.2955258E-1,-6.166835E-1,-8.30644E-2,-4.18684E-1,-2.3872387E-1,-6.7474264E-1,4.3428108E-1,-1.08209826E-1,-1.8215317E-1,3.874686E-1,2.5750354E-2,-4.6686628E-1,1.4721149E-1,2.1951434E-1,2.6424754E-1,-1.2604058E-1,-7.867892E-3,1.3902691E-1,-2.498934E-1,2.0536214E-2,-7.1337126E-2,8.060567E-2,-2.1987137E-1,9.436379E-2,-4.8850942E-2,1.4110295E-1,-1.7056458E-1,-9.214292E-3,-5.841866E-2,-4.480347E-1,-2.4856028E-1,-1.2534055E-1,1.6817482E-1,-8.190496E-2,-9.562887E-2,3.5473585E-2,9.077086E-2,-1.5445772E-1,1.2897627E-1,-1.1969218E-1,-1.9631256E-1,1.3706595E-2,1.1180067E-2,-2.2258225E-1],"categories":[],"categories_nodes":[],"categories_segments":[],"categories_sizes":[],"default_left":[0,0,0,0,0,1,0,0,0,0,0,0,0,0,0,0,0,0,0,0,0,0,0,0,0,1,0,1,0,0,1,0,0,0,0,0,0,0,0,0,0,0,0,0,0,0,0,0,0,0,0,0,0,0,0,0,0,0,0,0,0,0,0,0,0],"id":7,"left_children":[1,3,-1,5,7,9,11,13,15,17,19,21,23,25,27,29,31,33,35,37,39,41,43,45,47,49,51,53,55,57,59,61,63,-1,-1,-1,-1,-1,-1,-1,-1,-1,-1,-1,-1,-1,-1,-1,-1,-1,-1,-1,-1,-1,-1,-1,-1,-1,-1,-1,-1,-1,-1,-1,-1],"loss_changes":[4.3549173E2,8.155668E1,0E0,4.0202713E1,2.4281332E1,1.8849655E1,1.2916507E1,3.327678E1,2.3074743E1,4.6034546E0,1.1701725E1,9.527519E0,2.3246708E0,1.3724537E1,1.1165044E1,1.5970516E1,1.8250025E1,3.5689697E0,9.279085E0,9.173466E0,6.6729503E0,9.28484E0,1.7163324E0,3.968906E0,1.572732E0,1.2942384E1,3.7948723E0,7.6406517E0,3.3617206E0,9.887545E0,9.337936E0,8.757397E0,1.1837225E1,0E0,0E0,0E0,0E0,0E0,0E0,0E0,0E0,0E0,0E0,0E0,0E0,0E0,0E0,0E0,0E0,0E0,0E0,0E0,0E0,0E0,0E0,0E0,0E0,0E0,0E0,0E0,0E0,0E0,0E0,0E0,0E0],"parents":[2147483647,0,0,1,1,3,3,4,4,5,5,6,6,7,7,8,8,9,9,10,10,11,11,12,12,13,13,14,14,15,15,16,16,17,17,18,18,19,19,20,20,21,21,22,22,23,23,24,24,25,25,26,26,27,27,28,28,29,29,30,30,31,31,32,32],"right_children":[2,4,-1,6,8,10,12,14,16,18,20,22,24,26,28,30,32,34,36,38,40,42,44,46,48,50,52,54,56,58,60,62,64,-1,-1,-1,-1,-1,-1,-1,-1,-1,-1,-1,-1,-1,-1,-1,-1,-1,-1,-1,-1,-1,-1,-1,-1,-1,-1,-1,-1,-1,-1,-1,-1],"split_conditions":[2.012E3,4E-2,-3.2078448E-1,6.6E1,2E0,2E1,2E0,2E0,5.6E1,1E1,2E0,9E1,4.9E1,5.2E1,6.2E1,1E0,3E0,2E0,1.3E1,1E0,2E0,1E0,1.5E1,1E0,5E0,9.999995E-1,1.46E2,6.6666657E-1,6E0,6E0,1.3E2,1E0,7.1E1,1.4721149E-1,2.1951434E-1,2.6424754E-1,-1.2604058E-1,-7.867892E-3,1.3902691E-1,-2.498934E-1,2.0536214E-2,-7.1337126E-2,8.060567E-2,-2.1987137E-1,9.436379E-2,-4.8850942E-2,1.4110295E-1,-1.7056458E-1,-9.214292E-3,-5.841866E-2,-4.480347E-1,-2.4856028E-1,-1.2534055E-1,1.6817482E-1,-8.190496E-2,-9.562887E-2,3.5473585E-2,9.077086E-2,-1.5445772E-1,1.2897627E-1,-1.1969218E-1,-1.9631256E-1,1.3706595E-2,1.1180067E-2,-2.2258225E-1],"split_indices":[5,6,0,0,9,3,2,10,0,4,2,0,7,3,0,11,9,9,7,11,8,11,4,15,4,6,7,6,4,1,7,10,0,0,0,0,0,0,0,0,0,0,0,0,0,0,0,0,0,0,0,0,0,0,0,0,0,0,0,0,0,0,0,0,0],"split_type":[0,0,0,0,0,0,0,0,0,0,0,0,0,0,0,0,0,0,0,0,0,0,0,0,0,0,0,0,0,0,0,0,0,0,0,0,0,0,0,0,0,0,0,0,0,0,0,0,0,0,0,0,0,0,0,0,0,0,0,0,0,0,0,0,0],"sum_hessian":[3.1858582E3,2.8527192E3,3.3313892E2,1.2990111E3,1.5537081E3,6.6957135E2,6.2943976E2,4.940517E2,1.0596565E3,3.7198434E2,2.9758704E2,5.1592175E2,1.13518036E2,3.4252063E2,1.5153108E2,3.3290076E2,7.2675574E2,3.5174063E2,2.0243708E1,2.6157626E2,3.601075E1,5.031934E2,1.2728361E1,8.716826E1,2.6349771E1,2.3872485E2,1.0379576E2,8.281691E1,6.871417E1,5.9344517E1,2.7355624E2,6.4259515E2,8.416059E1,9.324485E1,2.584958E2,8.94453E0,1.1299177E1,4.6362362E1,2.1521391E2,1.1169478E1,2.4841272E1,3.848711E1,4.6470627E2,1.1505411E1,1.2229495E0,7.6803085E1,1.0365181E1,1.8671803E1,7.6779695E0,2.3175395E2,6.970897E0,6.353961E1,4.0256153E1,7.044502E1,1.2371887E1,3.539606E1,3.331811E1,2.4190987E1,3.515353E1,2.5997604E2,1.358021E1,1.7395288E1,6.251998E2,3.0015411E1,5.4145176E1],"tree_param":{"num_deleted":"0","num_feature":"17","num_nodes":"65","size_leaf_vector":"1"}},{"base_weights":[6.457114E-3,1.0378238E-1,-3.145261E-1,2.5129655E-1,-1.2539934E-2,4.1151407E-1,1.09003425E-1,-2.1398701E-1,3.9404232E-2,6.477965E-1,2.845469E-1,-3.117813E-2,2.3461565E-1,-3.9774933E-1,1.5966772E-1,1.7283607E-1,-7.2274946E-2,6.652209E-1,-3.5079643E-1,3.5389468E-1,-1.3390866E-1,4.6310183E-3,-3.445658E-1,4.1902906E-1,1.1033503E-1,-2.6032722E-1,-5.915669E-1,2.7187365E-1,-4.1339377E-1,-2.5780872E-1,2.3624437E-1,-8.3557904E-2,1.1985881E0,2.092931E-1,4.2764932E-2,2.016169E-1,-3.8174805E-1,6.5453246E-2,1.3829339E-1,-9.854253E-3,-2.3993239E-1,8.937713E-2,-6.457699E-3,-2.840636E-1,1.5215352E-2,-6.660888E-2,1.4434554E-1,-1.836868E-1,4.2674188E-2,-1.3784799E-1,-4.1855117E-3,-1.4059268E-1,-3.3061588E-1,6.3716345E-2,3.0878842E-1,1.4289987E-1,-1.5114711E-1,-5.700201E-2,-5.156333E-1,8.5182115E-2,-9.862576E-2,2.510381E-2,-4.4570055E-2,1.0018344E-1,4.023291E-1],"categories":[],"categories_nodes":[],"categories_segments":[],"categories_sizes":[],"default_left":[0,0,0,0,0,1,0,0,0,0,0,1,0,1,0,0,0,0,0,0,0,1,0,0,1,0,0,1,0,0,0,0,0,0,0,0,0,0,0,0,0,0,0,0,0,0,0,0,0,0,0,0,0,0,0,0,0,0,0,0,0,0,0,0,0],"id":8,"left_children":[1,3,-1,5,7,9,11,13,15,17,19,21,23,25,27,29,31,33,35,37,39,41,43,45,47,49,51,53,55,57,59,61,63,-1,-1,-1,-1,-1,-1,-1,-1,-1,-1,-1,-1,-1,-1,-1,-1,-1,-1,-1,-1,-1,-1,-1,-1,-1,-1,-1,-1,-1,-1,-1,-1],"loss_changes":[3.0621735E2,4.6858856E1,0E0,2.7402786E1,1.5994191E1,1.6794235E1,1.1259289E1,2.157761E1,1.8123323E1,3.6617203E0,1.0781958E1,3.4004812E0,7.680559E0,5.4478073E0,6.80013E0,1.5189987E1,9.597179E0,3.1881714E0,4.658104E0,4.5151443E0,3.5613952E0,2.0992234E0,7.445792E0,5.497984E0,4.762884E0,6.1199026E0,4.9096107E0,3.7273827E0,1.6421185E0,6.764528E0,1.3121719E1,7.159888E0,2.7835274E-1,0E0,0E0,0E0,0E0,0E0,0E0,0E0,0E0,0E0,0E0,0E0,0E0,0E0,0E0,0E0,0E0,0E0,0E0,0E0,0E0,0E0,0E0,0E0,0E0,0E0,0E0,0E0,0E0,0E0,0E0,0E0,0E0],"parents":[2147483647,0,0,1,1,3,3,4,4,5,5,6,6,7,7,8,8,9,9,10,10,11,11,12,12,13,13,14,14,15,15,16,16,17,17,18,18,19,19,20,20,21,21,22,22,23,23,24,24,25,25,26,26,27,27,28,28,29,29,30,30,31,31,32,32],"right_children":[2,4,-1,6,8,10,12,14,16,18,20,22,24,26,28,30,32,34,36,38,40,42,44,46,48,50,52,54,56,58,60,62,64,-1,-1,-1,-1,-1,-1,-1,-1,-1,-1,-1,-1,-1,-1,-1,-1,-1,-1,-1,-1,-1,-1,-1,-1,-1,-1,-1,-1,-1,-1,-1,-1],"split_conditions":[2.012E3,4E-2,-3.145261E-1,6.5E1,2E0,1.5E1,3E0,2E0,8.4E-1,3.2E1,1E1,4.8E1,1.4E1,1.8518518E-1,7.7E1,1E0,2E0,2E0,1.3E1,2E0,7.8E1,6E0,2E0,1E0,9E0,3E0,1.9E1,1.21E2,9E0,1E0,8.3E1,1.9E1,2E0,2.092931E-1,4.2764932E-2,2.016169E-1,-3.8174805E-1,6.5453246E-2,1.3829339E-1,-9.854253E-3,-2.3993239E-1,8.937713E-2,-6.457699E-3,-2.840636E-1,1.5215352E-2,-6.660888E-2,1.4434554E-1,-1.836868E-1,4.2674188E-2,-1.3784799E-1,-4.1855117E-3,-1.4059268E-1,-3.3061588E-1,6.3716345E-2,3.0878842E-1,1.4289987E-1,-1.5114711E-1,-5.700201E-2,-5.156333E-1,8.5182115E-2,-9.862576E-2,2.510381E-2,-4.4570055E-2,1.0018344E-1,4.023291E-1],"split_indices":[5,6,0,0,8,7,14,10,6,4,4,7,7,6,0,11,11,2,3,9,3,7,9,11,3,14,4,7,3,12,0,3,9,0,0,0,0,0,0,0,0,0,0,0,0,0,0,0,0,0,0,0,0,0,0,0,0,0,0,0,0,0,0,0,0],"split_type":[0,0,0,0,0,0,0,0,0,0,0,0,0,0,0,0,0,0,0,0,0,0,0,0,0,0,0,0,0,0,0,0,0,0,0,0,0,0,0,0,0,0,0,0,0,0,0,0,0,0,0,0,0,0,0,0,0,0,0,0,0,0,0,0,0],"sum_hessian":[2.9805898E3,2.7296482E3,2.5094162E2,1.2029573E3,1.5266909E3,5.6494977E2,6.380075E2,3.1232587E2,1.214365E3,1.9603394E2,3.689158E2,3.0187305E2,3.361345E2,2.0931894E2,1.0300694E2,5.530479E2,6.6131714E2,1.9300012E2,3.033811E0,3.1660187E2,5.2313953E1,2.71801E2,3.0072037E1,1.3437335E2,2.0176112E2,1.2384938E2,8.546955E1,8.658007E1,1.6426876E1,7.058639E1,4.8246152E2,6.564235E2,4.893598E0,1.8141187E2,1.1588256E1,1.5663756E0,1.4674355E0,1.409718E2,1.7563007E2,4.6331387E1,5.98257E0,2.140447E1,2.5039653E2,1.13626995E1,1.8709337E1,1.1643844E1,1.2272951E2,7.764072E0,1.9399706E2,6.800788E1,5.5841507E1,7.042845E1,1.5041097E1,8.1462616E1,5.117448E0,1.1218398E0,1.5305037E1,6.853577E1,2.0506172E0,4.4536227E2,3.7099236E1,1.8366168E2,4.7276184E2,1.1654983E0,3.7281E0],"tree_param":{"num_deleted":"0","num_feature":"17","num_nodes":"65","size_leaf_vector":"1"}},{"base_weights":[3.554266E-3,7.8108616E-2,-3.098752E-1,2.795372E-1,2.4455728E-2,4.0644988E-1,-1.3215111E-3,1.8723929E-1,-2.8552111E-2,4.7356868E-1,1.2478847E-2,5.1823724E-2,-8.977369E-1,2.1815193E-1,-8.358382E-1,-4.6667017E-2,5.585117E-1,-2.0877266E-2,5.356109E-1,2.0006049E-1,-6.2285626E-1,7.477629E-2,-8.4014046E-1,-1.2071013E0,-2.4501288E-1,2.9120427E-1,-1.025908E-1,-4.1289032E-1,-1.384434E0,-3.025437E-2,-5.881153E-1,8.3750933E-1,-4.6051493E-1,1.0496444E-1,-9.814992E-2,1.7026041E-1,-5.4654684E-3,9.786702E-3,2.2978939E-1,1.4601523E-2,-2.2867827E-1,9.344296E-3,1.5225628E-1,-5.3886756E-2,-3.5697186E-1,-1.3965388E-1,-4.372474E-1,7.523886E-2,-1.53393E-1,9.765544E-2,-8.282417E-2,-1.22061E-1,1.08232655E-1,-2.6758257E-1,9.6434996E-2,-4.6795082E-1,-1.1341601E-1,-1.4102885E-3,-9.260185E-2,-2.9202014E-1,-8.2616076E-2,3.1364238E-1,1.1834965E-1,-1.9019188E-1,1.2440587E-1],"categories":[],"categories_nodes":[],"categories_segments":[],"categories_sizes":[],"default_left":[0,0,0,0,0,0,0,1,1,0,0,1,1,0,0,1,0,0,0,0,0,0,0,0,0,0,0,0,0,0,0,0,0,0,0,0,0,0,0,0,0,0,0,0,0,0,0,0,0,0,0,0,0,0,0,0,0,0,0,0,0,0,0,0,0],"id":9,"left_children":[1,3,-1,5,7,9,11,13,15,17,19,21,23,25,27,29,31,33,35,37,39,41,43,45,47,49,51,53,55,57,59,61,63,-1,-1,-1,-1,-1,-1,-1,-1,-1,-1,-1,-1,-1,-1,-1,-1,-1,-1,-1,-1,-1,-1,-1,-1,-1,-1,-1,-1,-1,-1,-1,-1],"loss_changes":[2.1794669E2,2.8428598E1,0E0,1.9723747E1,1.7943079E1,1.0071945E1,8.298406E0,1.6336336E1,1.671217E1,9.99987E0,6.8586845E0,3.429863E0,1.672853E0,1.1665579E1,2.952361E0,1.3516453E1,1.3760399E1,4.3462305E0,5.1261063E0,4.180336E0,1.2656193E0,3.0287132E0,7.583418E-1,5.023861E-1,7.0779145E-1,7.9682693E0,1.3239644E1,3.8049266E0,5.024004E-1,1.0522674E1,5.1242485E0,3.02281E0,1.8958857E0,0E0,0E0,0E0,0E0,0E0,0E0,0E0,0E0,0E0,0E0,0E0,0E0,0E0,0E0,0E0,0E0,0E0,0E0,0E0,0E0,0E0,0E0,0E0,0E0,0E0,0E0,0E0,0E0,0E0,0E0,0E0,0E0],"parents":[2147483647,0,0,1,1,3,3,4,4,5,5,6,6,7,7,8,8,9,9,10,10,11,11,12,12,13,13,14,14,15,15,16,16,17,17,18,18,19,19,20,20,21,21,22,22,23,23,24,24,25,25,26,26,27,27,28,28,29,29,30,30,31,31,32,32],"right_children":[2,4,-1,6,8,10,12,14,16,18,20,22,24,26,28,30,32,34,36,38,40,42,44,46,48,50,52,54,56,58,60,62,64,-1,-1,-1,-1,-1,-1,-1,-1,-1,-1,-1,-1,-1,-1,-1,-1,-1,-1,-1,-1,-1,-1,-1,-1,-1,-1,-1,-1,-1,-1,-1,-1],"split_conditions":[2.012E3,1.4E1,-3.098752E-1,7.6E1,5.2E1,2.7E1,1.2E1,1.4E1,9.9E2,1E0,1E0,2E0,7.142857E-2,7.3E1,9.333333E-1,9.5E1,9.98E2,5.8E1,2E0,2E0,4.8E1,5E0,8.2E1,8E0,1.111111E-1,3.7E1,2E0,7.7777773E-1,4.7E1,8.7E1,1E0,9.93E2,8E1,1.0496444E-1,-9.814992E-2,1.7026041E-1,-5.4654684E-3,9.786702E-3,2.2978939E-1,1.4601523E-2,-2.2867827E-1,9.344296E-3,1.5225628E-1,-5.3886756E-2,-3.5697186E-1,-1.3965388E-1,-4.372474E-1,7.523886E-2,-1.53393E-1,9.765544E-2,-8.282417E-2,-1.22061E-1,1.08232655E-1,-2.6758257E-1,9.6434996E-2,-4.6795082E-1,-1.1341601E-1,-1.4102885E-3,-9.260185E-2,-2.9202014E-1,-8.2616076E-2,3.1364238E-1,1.1834965E-1,-1.9019188E-1,1.2440587E-1],"split_indices":[5,7,0,0,0,1,4,1,3,11,15,1,6,3,6,3,3,0,2,10,0,4,0,3,6,4,10,6,0,0,15,7,0,0,0,0,0,0,0,0,0,0,0,0,0,0,0,0,0,0,0,0,0,0,0,0,0,0,0,0,0,0,0,0,0],"split_type":[0,0,0,0,0,0,0,0,0,0,0,0,0,0,0,0,0,0,0,0,0,0,0,0,0,0,0,0,0,0,0,0,0,0,0,0,0,0,0,0,0,0,0,0,0,0,0,0,0,0,0,0,0,0,0,0,0,0,0,0,0,0,0,0,0],"sum_hessian":[2.8184153E3,2.630151E3,1.8826451E2,5.5233057E2,2.0778203E3,3.8011804E2,1.7221255E2,5.0978183E2,1.5680383E3,3.246133E2,5.5504734E1,1.6346358E2,8.748978E0,4.9559406E2,1.41877775E1,1.521995E3,4.6043377E1,3.6264748E1,2.8834857E2,4.338152E1,1.2123212E1,1.6025594E2,3.2076364E0,5.3594766E0,3.389501E0,4.0373212E2,9.186192E1,9.000977E0,5.1868014E0,1.4782417E3,4.375332E1,3.6286644E1,9.756732E0,1.6341393E1,1.9923353E1,2.7261008E2,1.57385025E1,3.429273E1,9.088792E0,2.1959462E0,9.927265E0,1.465527E2,1.3703237E1,1.6345007E0,1.5731356E0,2.0745027E0,3.2849739E0,1.2047077E0,2.1847935E0,3.8110602E2,2.2626099E1,5.5523304E1,3.6338615E1,5.317473E0,3.6835036E0,3.948646E0,1.2381556E0,1.3549047E3,1.2333705E2,1.865613E1,2.5097189E1,2.376878E1,1.2517863E1,8.372912E0,1.3838192E0],"tree_param":{"num_deleted":"0","num_feature":"17","num_nodes":"65","size_leaf_vector":"1"}},{"base_weights":[1.0738601E-3,5.76667E-2,-3.0627692E-1,1.2948704E-1,-5.20062E-2,2.881542E-1,6.2985115E-2,-8.358169E-2,4.3482184E-1,5.11955E-2,4.2632887E-1,-3.576245E-2,1.6662683E-1,-5.4125886E-2,-4.8228395E-1,7.834375E-1,-2.3065807E-1,-3.592066E-2,2.9729152E-1,5.418254E-1,-6.872833E-2,-1.43676335E-2,-6.072753E-1,1.8406643E-1,-4.70379E-1,-1.9552484E-1,1.0485377E-2,-7.627208E-1,-2.3273893E-1,9.9182546E-1,3.442612E-1,-4.2730564E-1,4.9684837E-1,2.9325511E-2,-1.0294556E-1,1.0989081E-1,-2.100287E-1,1.6712777E-1,-8.730291E-2,-5.162489E-1,2.4139364E-3,-4.9636483E-2,1.27547225E-2,-4.9553838E-1,-1.2458687E-1,7.90374E-2,7.4854274E-3,-4.990982E-1,-4.5496803E-2,7.757605E-2,-7.337804E-2,-4.038601E-2,1.9714156E-2,-1.3790514E-1,-3.0480933E-1,-4.0439457E-1,-3.251053E-2,9.867642E-2,3.1258798E-1,2.0411327E-1,-2.386402E-1,-1.3819746E-2,-2.3675835E-1,2.9920655E-1,3.542896E-3],"categories":[],"categories_nodes":[],"categories_segments":[],"categories_sizes":[],"default_left":[0,0,0,0,1,0,0,1,0,0,0,0,0,0,0,0,0,0,0,0,0,0,0,0,0,0,0,0,0,0,0,0,0,0,0,0,0,0,0,0,0,0,0,0,0,0,0,0,0,0,0,0,0,0,0,0,0,0,0,0,0,0,0,0,0],"id":10,"left_children":[1,3,-1,5,7,9,11,13,15,17,19,21,23,25,27,29,31,33,35,37,39,41,43,45,47,49,51,53,55,57,59,61,63,-1,-1,-1,-1,-1,-1,-1,-1,-1,-1,-1,-1,-1,-1,-1,-1,-1,-1,-1,-1,-1,-1,-1,-1,-1,-1,-1,-1,-1,-1,-1,-1],"loss_changes":[1.5637646E2,2.018563E1,0E0,1.6319555E1,1.5630752E1,1.4941589E1,1.1185352E1,1.1172207E1,1.4553424E1,3.6439486E0,1.6535389E1,6.8410707E0,6.009286E0,8.124415E0,4.4043903E0,3.4000683E0,3.3696742E0,5.210444E0,3.3135555E0,3.138359E0,7.0496807E0,4.656663E0,3.362853E0,6.557848E0,5.2579722E0,6.277563E0,4.9067154E0,1.865694E0,4.858863E0,5.610752E-1,6.1677957E0,2.4348073E0,1.2405373E0,0E0,0E0,0E0,0E0,0E0,0E0,0E0,0E0,0E0,0E0,0E0,0E0,0E0,0E0,0E0,0E0,0E0,0E0,0E0,0E0,0E0,0E0,0E0,0E0,0E0,0E0,0E0,0E0,0E0,0E0,0E0,0E0],"parents":[2147483647,0,0,1,1,3,3,4,4,5,5,6,6,7,7,8,8,9,9,10,10,11,11,12,12,13,13,14,14,15,15,16,16,17,17,18,18,19,19,20,20,21,21,22,22,23,23,24,24,25,25,26,26,27,27,28,28,29,29,30,30,31,31,32,32],"right_children":[2,4,-1,6,8,10,12,14,16,18,20,22,24,26,28,30,32,34,36,38,40,42,44,46,48,50,52,54,56,58,60,62,64,-1,-1,-1,-1,-1,-1,-1,-1,-1,-1,-1,-1,-1,-1,-1,-1,-1,-1,-1,-1,-1,-1,-1,-1,-1,-1,-1,-1,-1,-1,-1,-1],"split_conditions":[2.012E3,3.5E1,-3.0627692E-1,5.8E1,2.1E2,2E0,3E0,9.1E1,9.97E2,2E0,8E0,3E0,3E0,2E0,3E0,6.6E1,7.4E1,2.4999994E-1,2E0,3.4E1,5.1724136E-1,2E0,6.5E1,7.6E1,6.3E1,4.7E1,2E0,1.12E2,3.5E1,9.9E2,9.93E2,1E0,2.011E3,2.9325511E-2,-1.0294556E-1,1.0989081E-1,-2.100287E-1,1.6712777E-1,-8.730291E-2,-5.162489E-1,2.4139364E-3,-4.9636483E-2,1.27547225E-2,-4.9553838E-1,-1.2458687E-1,7.90374E-2,7.4854274E-3,-4.990982E-1,-4.5496803E-2,7.757605E-2,-7.337804E-2,-4.038601E-2,1.9714156E-2,-1.3790514E-1,-3.0480933E-1,-4.0439457E-1,-3.251053E-2,9.867642E-2,3.1258798E-1,2.0411327E-1,-2.386402E-1,-1.3819746E-2,-2.3675835E-1,2.9920655E-1,3.542896E-3],"split_indices":[5,7,0,0,3,9,14,3,7,10,1,8,10,4,14,0,0,6,2,7,6,9,0,0,0,0,8,7,0,3,3,16,5,0,0,0,0,0,0,0,0,0,0,0,0,0,0,0,0,0,0,0,0,0,0,0,0,0,0,0,0,0,0,0,0],"split_type":[0,0,0,0,0,0,0,0,0,0,0,0,0,0,0,0,0,0,0,0,0,0,0,0,0,0,0,0,0,0,0,0,0,0,0,0,0,0,0,0,0,0,0,0,0,0,0,0,0,0,0,0,0,0,0,0,0,0,0,0,0,0,0,0,0],"sum_hessian":[2.7016936E3,2.5608315E3,1.408619E2,1.5473525E3,1.0134791E3,4.56014E2,1.0913385E3,9.5252686E2,6.0952244E1,1.6847061E2,2.875434E2,5.591999E2,5.3213855E2,8.880539E2,6.447298E1,3.988237E1,2.1069872E1,1.25055824E2,4.3414795E1,2.3307312E2,5.447028E1,5.400096E2,1.919034E1,5.1865027E2,1.3488286E1,2.7788608E2,6.1016785E2,2.9389181E1,3.5083794E1,2.6194689E1,1.3687682E1,1.6911325E1,4.158548E0,8.761673E1,3.743909E1,4.119703E1,2.217766E0,2.2920258E2,3.8705394E0,1.4679415E0,5.300234E1,1.4717938E2,3.928302E2,1.7989925E0,1.7391346E1,3.4556995E2,1.7308035E2,1.9537569E0,1.1534529E1,2.6682217E1,2.5120386E2,1.6781609E2,4.4235175E2,1.4662738E1,1.4726442E1,2.5328686E0,3.2550922E1,2.373382E0,2.3821306E1,1.0881627E1,2.8060555E0,8.784447E0,8.126878E0,1.5268096E0,2.6317382E0],"tree_param":{"num_deleted":"0","num_feature":"17","num_nodes":"65","size_leaf_vector":"1"}},{"base_weights":[-4.500627E-4,4.2551104E-2,-3.0333862E-1,-1.4769067E-1,7.310776E-2,-4.4257537E-2,-3.9128104E-1,1.0605885E-1,-1.304142E-1,-8.54514E-2,5.728672E-1,-4.8643768E-1,2.012742E-1,3.0539203E-1,6.827289E-2,-4.9624946E-2,-6.8351805E-1,-6.384039E-2,-1.2994593E0,9.9403524E-1,1.2111861E-1,-6.375219E-1,-1.8933444E-1,3.7811503E-1,-2.4290846E-1,8.150651E-1,2.581468E-1,-6.315106E-2,1.0803988E-1,-2.3667391E-2,-7.532537E-1,-5.181783E-1,-1.1375811E0,-3.9562732E-2,6.993697E-2,-1.2059904E-1,-5.162107E-1,7.543883E-3,3.519652E-1,1.7574905E-1,-1.546717E-1,-1.4560682E-1,-2.83269E-1,2.585515E-2,-1.3594785E-1,1.7931308E-1,-1.7365913E-1,2.728312E-1,-3.1333447E-2,9.754809E-2,-2.6509194E-2,1.5492718E-2,-6.950362E-2,7.564099E-2,1.7254936E-2,-3.4694056E-4,-2.1705972E-1,1.0247184E-1,-2.839559E-1,-2.002878E-1,-2.9084291E-2,-3.6000806E-1,-9.954637E-2],"categories":[],"categories_nodes":[],"categories_segments":[],"categories_sizes":[],"default_left":[0,0,0,0,0,0,1,0,0,0,0,0,0,0,0,0,1,0,0,0,0,1,0,0,0,0,0,1,0,0,0,1,0,0,0,0,0,0,0,0,0,0,0,0,0,0,0,0,0,0,0,0,0,0,0,0,0,0,0,0,0,0,0],"id":11,"left_children":[1,3,-1,5,7,9,11,13,15,17,19,21,23,25,27,29,31,33,35,37,39,41,43,45,-1,47,49,51,53,55,57,59,61,-1,-1,-1,-1,-1,-1,-1,-1,-1,-1,-1,-1,-1,-1,-1,-1,-1,-1,-1,-1,-1,-1,-1,-1,-1,-1,-1,-1,-1,-1],"loss_changes":[1.131124E2,1.4523045E1,0E0,8.695702E0,1.444326E1,6.248616E0,5.902608E0,1.3931168E1,1.3383396E1,5.93773E0,2.8077297E0,3.8740616E0,2.979238E0,6.8905487E0,8.1519165E0,4.787102E0,2.2776585E0,4.60737E0,8.0611134E-1,1.3291159E0,2.835981E0,2.2753067E0,2.3231244E0,3.1635299E0,0E0,2.2256355E0,6.3295193E0,7.0279026E0,8.698619E0,4.0126133E0,2.296908E0,1.8132963E0,7.265186E-2,0E0,0E0,0E0,0E0,0E0,0E0,0E0,0E0,0E0,0E0,0E0,0E0,0E0,0E0,0E0,0E0,0E0,0E0,0E0,0E0,0E0,0E0,0E0,0E0,0E0,0E0,0E0,0E0,0E0,0E0],"parents":[2147483647,0,0,1,1,3,3,4,4,5,5,6,6,7,7,8,8,9,9,10,10,11,11,12,12,13,13,14,14,15,15,16,16,17,17,18,18,19,19,20,20,21,21,22,22,23,23,25,25,26,26,27,27,28,28,29,29,30,30,31,31,32,32],"right_children":[2,4,-1,6,8,10,12,14,16,18,20,22,24,26,28,30,32,34,36,38,40,42,44,46,-1,48,50,52,54,56,58,60,62,-1,-1,-1,-1,-1,-1,-1,-1,-1,-1,-1,-1,-1,-1,-1,-1,-1,-1,-1,-1,-1,-1,-1,-1,-1,-1,-1,-1,-1,-1],"split_conditions":[2.012E3,1E0,-3.0333862E-1,4.8E1,8.3E1,4.2E1,1.35E2,1.2E1,3E0,1E0,2E0,2E0,1.98E3,4.7E1,2E0,9.5E1,3.6E1,2E0,5E0,4.3E1,6E1,7.5E1,2.011E3,6.9E1,-2.4290846E-1,1.9E1,1E0,3.1249998E-2,5.4E1,4.9E1,1.4E1,1.7E1,1.42E2,-3.9562732E-2,6.993697E-2,-1.2059904E-1,-5.162107E-1,7.543883E-3,3.519652E-1,1.7574905E-1,-1.546717E-1,-1.4560682E-1,-2.83269E-1,2.585515E-2,-1.3594785E-1,1.7931308E-1,-1.7365913E-1,2.728312E-1,-3.1333447E-2,9.754809E-2,-2.6509194E-2,1.5492718E-2,-6.950362E-2,7.564099E-2,1.7254936E-2,-3.4694056E-4,-2.1705972E-1,1.0247184E-1,-2.839559E-1,-2.002878E-1,-2.9084291E-2,-3.6000806E-1,-9.954637E-2],"split_indices":[5,11,0,3,0,3,7,7,10,12,9,10,7,0,8,0,7,10,4,3,0,7,5,0,0,4,15,6,0,4,3,3,3,0,0,0,0,0,0,0,0,0,0,0,0,0,0,0,0,0,0,0,0,0,0,0,0,0,0,0,0,0,0],"split_type":[0,0,0,0,0,0,0,0,0,0,0,0,0,0,0,0,0,0,0,0,0,0,0,0,0,0,0,0,0,0,0,0,0,0,0,0,0,0,0,0,0,0,0,0,0,0,0,0,0,0,0,0,0,0,0,0,0,0,0,0,0,0,0],"sum_hessian":[2.6006667E3,2.4954512E3,1.0521563E2,3.44819E2,2.150632E3,2.4287242E2,1.0194658E2,1.8513667E3,2.9926544E2,2.2848247E2,1.4389963E1,8.799484E1,1.3951736E1,2.9389468E2,1.557472E3,2.620751E2,3.719035E1,2.2552048E2,2.961988E0,6.825805E0,7.5641584E0,5.757219E1,3.0422655E1,1.2407396E1,1.5443403E0,2.355338E1,2.703413E2,3.6165808E2,1.195814E3,2.5374774E2,8.327367E0,2.8832619E1,8.357731E0,1.8393602E2,4.1584454E1,1.570446E0,1.391542E0,1.243294E0,5.582511E0,4.418813E0,3.1453452E0,4.0206944E1,1.7365248E1,1.5210904E1,1.521175E1,1.0397037E1,2.0103593E0,2.1370962E1,2.1824164E0,2.2658289E2,4.3758415E1,2.1553734E2,1.4612074E2,3.0939755E2,8.864164E2,2.468108E2,6.9369345E0,1.134305E0,7.1930614E0,2.0850254E1,7.982365E0,7.3024826E0,1.055248E0],"tree_param":{"num_deleted":"0","num_feature":"17","num_nodes":"63","size_leaf_vector":"1"}},{"base_weights":[-2.1022116E-3,3.0318668E-2,-3.0076325E-1,2.5498E-2,8.4852797E-1,9.788055E-2,-2.638999E-2,1.1670002E0,2.666857E-1,1.4530538E-1,-1.1537891E-1,-1.8826973E-2,-5.177441E-1,3.7187895E-1,1.1868707E-1,6.6533786E-1,-1.3181478E-1,1.6230865E-1,-5.515558E-1,1.6456316E-1,-1.9246688E-1,-1.1599919E-2,-5.052881E-1,2.7136064E-1,-8.477445E-1,-4.447888E-2,3.2537466E-1,8.1652716E-2,2.0600509E-2,-5.374602E-2,-3.2123578E-1,-1.047586E-1,1.18859746E-1,-1.797962E-1,-3.344721E-2,-1.9046945E-2,1.7260477E-2,2.3679753E-1,-1.8993023E-1,-3.5174298E-1,2.1522605E-1,-1.2457124E-1,-4.3857503E-1],"categories":[],"categories_nodes":[],"categories_segments":[],"categories_sizes":[],"default_left":[0,0,0,0,0,0,0,0,0,0,0,1,1,0,0,0,0,0,0,0,0,0,0,0,0,0,0,0,0,0,0,0,0,0,0,0,0,0,0,0,0,0,0],"id":12,"left_children":[1,3,-1,5,7,9,11,13,15,17,19,21,23,-1,-1,25,-1,27,29,31,33,35,37,39,41,-1,-1,-1,-1,-1,-1,-1,-1,-1,-1,-1,-1,-1,-1,-1,-1,-1,-1],"loss_changes":[8.216803E1,9.657087E0,0E0,9.168577E0,2.346305E0,1.032495E1,5.2756147E0,1.2029648E-2,2.08516E0,9.974382E0,4.0451183E0,4.922272E0,5.834587E0,0E0,0E0,1.6850433E0,0E0,8.367498E0,3.6943378E0,4.9812007E0,4.752575E0,4.962375E0,3.8912683E0,5.416415E0,3.4886017E0,0E0,0E0,0E0,0E0,0E0,0E0,0E0,0E0,0E0,0E0,0E0,0E0,0E0,0E0,0E0,0E0,0E0,0E0],"parents":[2147483647,0,0,1,1,3,3,4,4,5,5,6,6,7,7,8,8,9,9,10,10,11,11,12,12,15,15,17,17,18,18,19,19,20,20,21,21,22,22,23,23,24,24],"right_children":[2,4,-1,6,8,10,12,14,16,18,20,22,24,-1,-1,26,-1,28,30,32,34,36,38,40,42,-1,-1,-1,-1,-1,-1,-1,-1,-1,-1,-1,-1,-1,-1,-1,-1,-1,-1],"split_conditions":[2.012E3,2E0,-3.0076325E-1,4E-2,6.7E1,2E0,1E0,2E0,5E0,3.1E1,5.8E1,2.1E1,1.9E1,3.7187895E-1,1.1868707E-1,7.1E1,-1.3181478E-1,6.6E1,1E0,2E0,6.4E1,3E0,6.6666645E-1,5.5E1,1.1E1,-4.447888E-2,3.2537466E-1,8.1652716E-2,2.0600509E-2,-5.374602E-2,-3.2123578E-1,-1.047586E-1,1.18859746E-1,-1.797962E-1,-3.344721E-2,-1.9046945E-2,1.7260477E-2,2.3679753E-1,-1.8993023E-1,-3.5174298E-1,2.1522605E-1,-1.2457124E-1,-4.3857503E-1],"split_indices":[5,11,0,6,0,2,12,10,4,4,0,1,3,0,0,0,0,0,16,8,0,14,6,0,4,0,0,0,0,0,0,0,0,0,0,0,0,0,0,0,0,0,0],"split_type":[0,0,0,0,0,0,0,0,0,0,0,0,0,0,0,0,0,0,0,0,0,0,0,0,0,0,0,0,0,0,0,0,0,0,0,0,0,0,0,0,0,0,0],"sum_hessian":[2.5313604E3,2.452842E3,7.851847E1,2.4395002E3,1.3341709E1,1.0182203E3,1.42128E3,7.9723396E0,5.3693695E0,8.332418E2,1.8497844E2,1.4007576E3,2.0522413E1,6.7317986E0,1.2405412E0,3.4686346E0,1.9007345E0,8.14144E2,1.9097855E1,3.9694523E1,1.4528392E2,1.381261E3,1.9496698E1,6.1040244E0,1.4418389E1,1.3993542E0,2.0692806E0,3.7373657E2,4.4040738E2,1.190464E1,7.193216E0,1.2177608E1,2.7516916E1,2.3053513E1,1.222304E2,7.8908575E2,5.921752E2,1.2868239E0,1.8209875E1,1.0563229E0,5.0477014E0,9.443947E0,4.974443E0],"tree_param":{"num_deleted":"0","num_feature":"17","num_nodes":"43","size_leaf_vector":"1"}},{"base_weights":[-2.1395064E-3,2.2272091E-2,-2.9830837E-1,-1.12902485E-1,4.45278E-2,-4.205587E-2,-2.8153288E-1,8.517779E-2,-5.2463204E-2,-8.3427094E-2,3.482502E-1,-4.9900523E-1,-1.0287982E-1,3.0064288E-1,5.128464E-2,6.9466787E-3,-3.160333E-1,-6.808322E-2,-9.2447174E-1,1.2551399E-1,1.0114102E0,-1.7503606E-1,-9.6755594E-1,2.1864873E-1,-2.923442E-1,4.1028675E-1,3.535634E-2,1.00423835E-1,-5.1885575E-2,-2.7271735E-2,3.279123E-1,-3.447427E-1,3.3574533E-1,-3.670461E-2,4.5517035E-2,-7.202828E-2,-3.3790702E-1,2.064674E-1,-9.677372E-2,3.851764E-1,1.005886E-1,-5.9095034E-3,-2.3075338E-1,8.322468E-2,-3.529058E-1,1.500155E-3,2.7804047E-1,-1.14572324E-1,1.6519596E-1,-5.9328047E-3,1.446965E-1,-2.5885737E-1,3.31363E-2,5.398608E-2,5.258366E-3,-2.8792305E-2,1.13243066E-1,-1.3484699E-3,-1.3363653E-1,-1.549075E-1,1.4974749E-1,5.1224064E-2,-1.191892E-1],"categories":[],"categories_nodes":[],"categories_segments":[],"categories_sizes":[],"default_left":[0,0,0,0,0,0,0,0,0,1,1,0,0,0,1,1,1,0,0,0,0,0,0,0,0,0,0,0,0,1,0,0,0,0,0,0,0,0,0,0,0,0,0,0,0,0,0,0,0,0,0,0,0,0,0,0,0,0,0,0,0,0,0],"id":13,"left_children":[1,3,-1,5,7,9,11,13,15,17,19,21,23,25,27,29,31,33,35,37,39,41,43,45,47,49,51,53,55,57,59,61,-1,-1,-1,-1,-1,-1,-1,-1,-1,-1,-1,-1,-1,-1,-1,-1,-1,-1,-1,-1,-1,-1,-1,-1,-1,-1,-1,-1,-1,-1,-1],"loss_changes":[6.0101543E1,7.290821E0,0E0,4.0817766E0,8.205883E0,3.9441173E0,3.8802586E0,1.0691939E1,9.631648E0,2.7764845E0,3.3338873E0,6.718973E0,3.524992E0,5.7762203E0,6.4341927E0,5.5313916E0,5.0475197E0,2.6088834E0,2.632625E-1,4.9323E0,6.287875E-1,2.5736194E0,5.0909615E0,3.269072E0,2.9417446E0,4.370495E0,4.096251E0,5.662141E0,7.7935634E0,4.3347044E0,7.2724524E0,3.0935278E0,0E0,0E0,0E0,0E0,0E0,0E0,0E0,0E0,0E0,0E0,0E0,0E0,0E0,0E0,0E0,0E0,0E0,0E0,0E0,0E0,0E0,0E0,0E0,0E0,0E0,0E0,0E0,0E0,0E0,0E0,0E0],"parents":[2147483647,0,0,1,1,3,3,4,4,5,5,6,6,7,7,8,8,9,9,10,10,11,11,12,12,13,13,14,14,15,15,16,16,17,17,18,18,19,19,20,20,21,21,22,22,23,23,24,24,25,25,26,26,27,27,28,28,29,29,30,30,31,31],"right_children":[2,4,-1,6,8,10,12,14,16,18,20,22,24,26,28,30,32,34,36,38,40,42,44,46,48,50,52,54,56,58,60,62,-1,-1,-1,-1,-1,-1,-1,-1,-1,-1,-1,-1,-1,-1,-1,-1,-1,-1,-1,-1,-1,-1,-1,-1,-1,-1,-1,-1,-1,-1,-1],"split_conditions":[2.012E3,1E0,-2.9830837E-1,4.8E1,7.6E1,4.4E1,8E0,1.2E1,2E0,9.9999964E-1,2.7272725E-1,1E0,2.6923075E-1,1.4285712E-1,4.2E1,4.6E1,1.2E1,7.5E1,2.1E1,4.9E1,4.5E1,3E0,4.1E1,9.7E1,2E0,2E0,1.9999997E-1,6.1E1,1.98E2,6.999999E-1,2E0,7.7E1,3.3574533E-1,-3.670461E-2,4.5517035E-2,-7.202828E-2,-3.3790702E-1,2.064674E-1,-9.677372E-2,3.851764E-1,1.005886E-1,-5.9095034E-3,-2.3075338E-1,8.322468E-2,-3.529058E-1,1.500155E-3,2.7804047E-1,-1.14572324E-1,1.6519596E-1,-5.9328047E-3,1.446965E-1,-2.5885737E-1,3.31363E-2,5.398608E-2,5.258366E-3,-2.8792305E-2,1.13243066E-1,-1.3484699E-3,-1.3363653E-1,-1.549075E-1,1.4974749E-1,5.1224064E-2,-1.191892E-1],"split_indices":[5,11,0,3,0,7,4,7,10,6,6,16,6,6,7,3,1,0,3,7,3,9,0,3,2,8,6,0,3,6,8,0,0,0,0,0,0,0,0,0,0,0,0,0,0,0,0,0,0,0,0,0,0,0,0,0,0,0,0,0,0,0,0],"split_type":[0,0,0,0,0,0,0,0,0,0,0,0,0,0,0,0,0,0,0,0,0,0,0,0,0,0,0,0,0,0,0,0,0,0,0,0,0,0,0,0,0,0,0,0,0,0,0,0,0,0,0,0,0,0,0,0,0,0,0,0,0,0,0],"sum_hessian":[2.4793938E3,2.420812E3,5.8581608E1,3.4165115E2,2.079161E3,2.4145724E2,1.0019392E2,1.465201E3,6.139599E2,2.190273E2,2.2429953E1,4.4378872E1,5.5815044E1,1.9808258E2,1.2671184E3,5.0182086E2,1.1213904E2,2.1616458E2,2.8627172E0,1.7680763E1,4.7491894E0,2.7049591E1,1.732928E1,2.063782E1,3.5177227E1,1.3976897E2,5.8313602E1,8.583293E2,4.0878915E2,4.5430234E2,4.751852E1,1.1068469E2,1.4543421E0,1.7372021E2,4.2444363E1,1.1508089E0,1.7119081E0,7.600383E0,1.008038E1,2.7441711E0,2.0050185E0,2.2262295E1,4.7872977E0,2.4417083E0,1.4887572E1,1.662819E1,4.009629E0,3.229323E1,2.884001E0,2.0156448E1,1.19612526E2,3.6899514E0,5.4623653E1,4.3746133E2,4.2086795E2,3.7142603E2,3.7363144E1,4.317949E2,2.2507454E1,7.6731815E0,3.984534E1,1.0032318E1,1.00652374E2],"tree_param":{"num_deleted":"0","num_feature":"17","num_nodes":"63","size_leaf_vector":"1"}},{"base_weights":[-1.7534399E-3,1.6636735E-2,-2.9575926E-1,1.2807848E-2,7.307713E-1,-3.316321E-2,6.45038E-2,1.0483662E0,2.3279029E-1,-1.4850242E-2,-5.1204E-1,7.303767E-2,-6.162436E-1,3.3759987E-1,9.790459E-2,5.630981E-1,-9.997933E-2,-2.4179658E-2,3.63347E-1,-9.602456E-1,-1.9787274E-1,-4.7598228E-1,8.300548E-2,-8.29656E-2,-1.3215615E0,2.1348909E-2,3.3463824E-1,-4.5268997E-3,-2.6811975E-1,2.595018E-1,-6.775807E-2,-1.0091272E-1,-3.3143753E-1,2.3182495E-1,-9.8355465E-2,1.9837168E-1,-2.125366E-1,3.18758E-2,-4.2290397E-2,-9.544196E-2,2.2040324E-1,-5.319174E-1,-6.837736E-2,3.3598967E-2,-2.306471E-2],"categories":[],"categories_nodes":[],"categories_segments":[],"categories_sizes":[],"default_left":[0,0,0,0,0,0,0,0,0,1,0,0,0,0,0,0,0,1,0,0,0,1,0,0,1,0,0,0,0,0,0,0,0,0,0,0,0,0,0,0,0,0,0,0,0],"id":14,"left_children":[1,3,-1,5,7,9,11,13,15,17,19,21,23,-1,-1,25,-1,27,29,31,33,35,37,39,41,43,-1,-1,-1,-1,-1,-1,-1,-1,-1,-1,-1,-1,-1,-1,-1,-1,-1,-1,-1],"loss_changes":[4.4123703E1,6.5350575E0,0E0,5.66222E0,1.771843E0,1.1053548E1,6.55952E0,4.9381256E-2,1.3560421E0,4.298815E0,6.34752E0,6.105165E0,5.1522226E0,0E0,0E0,1.2683207E0,0E0,9.373079E0,8.865823E0,1.330286E0,3.8558125E0,5.732939E0,5.687577E0,1.9707273E0,2.5368834E0,3.7100017E-2,0E0,0E0,0E0,0E0,0E0,0E0,0E0,0E0,0E0,0E0,0E0,0E0,0E0,0E0,0E0,0E0,0E0,0E0,0E0],"parents":[2147483647,0,0,1,1,3,3,4,4,5,5,6,6,7,7,8,8,9,9,10,10,11,11,12,12,15,15,17,17,18,18,19,19,20,20,21,21,22,22,23,23,24,24,25,25],"right_children":[2,4,-1,6,8,10,12,14,16,18,20,22,24,-1,-1,26,-1,28,30,32,34,36,38,40,42,44,-1,-1,-1,-1,-1,-1,-1,-1,-1,-1,-1,-1,-1,-1,-1,-1,-1,-1,-1],"split_conditions":[2.012E3,2E0,-2.9575926E-1,3E0,6.7E1,1E0,3E0,2E0,5E0,3.4E2,5.9E1,3.4E1,5.8823526E-2,3.3759987E-1,9.790459E-2,2E0,-9.997933E-2,1.13E2,9.93E2,2.1E1,6.1E1,2E1,2.2E1,2E0,3.6E1,2.6E1,3.3463824E-1,-4.5268997E-3,-2.6811975E-1,2.595018E-1,-6.775807E-2,-1.0091272E-1,-3.3143753E-1,2.3182495E-1,-9.8355465E-2,1.9837168E-1,-2.125366E-1,3.18758E-2,-4.2290397E-2,-9.544196E-2,2.2040324E-1,-5.319174E-1,-6.837736E-2,3.3598967E-2,-2.306471E-2],"split_indices":[5,11,0,14,0,16,2,10,4,7,0,0,6,0,0,10,0,3,3,7,0,3,4,10,3,3,0,0,0,0,0,0,0,0,0,0,0,0,0,0,0,0,0,0,0],"split_type":[0,0,0,0,0,0,0,0,0,0,0,0,0,0,0,0,0,0,0,0,0,0,0,0,0,0,0,0,0,0,0,0,0,0,0,0,0,0,0,0,0,0,0,0,0],"sum_hessian":[2.4361409E3,2.3924167E3,4.3724236E1,2.3806704E3,1.1746212E1,1.2602982E3,1.1203723E3,6.497256E0,5.248956E0,1.2148707E3,4.5427467E1,1.1073828E3,1.2989471E1,5.3665867E0,1.1306692E0,3.318025E0,1.9309313E0,1.1865372E3,2.8333582E1,1.787281E1,2.7554657E1,1.891306E1,1.0884697E3,8.033281E0,4.95619E0,2.1994689E0,1.1185564E0,1.1752687E3,1.1268484E1,1.505093E1,1.3282651E1,3.9879022E0,1.3884909E1,2.670131E0,2.4884527E1,2.8970048E0,1.6016054E1,9.865926E2,1.0187715E2,6.7132826E0,1.319999E0,3.0682473E0,1.8879427E0,1.0710106E0,1.1284581E0],"tree_param":{"num_deleted":"0","num_feature":"17","num_nodes":"45","size_leaf_vector":"1"}},{"base_weights":[-1.8531183E-3,1.1975871E-2,-2.9291126E-1,-5.4274276E-2,4.5878366E-2,-1.1841227E-1,1.2338113E-1,1.3640963E-1,1.1153657E-2,-8.0209345E-2,-4.1808772E-1,6.513877E-2,6.0204315E-1,5.319439E-1,8.6730406E-2,3.0307975E-2,-2.5428942E-1,-8.661686E-2,3.532924E-1,6.2319535E-1,-4.7504357E-1,-1.7387772E-1,1.5856059E-1,8.1058806E-1,-4.165764E-1,2.6755884E-1,3.5428905E-1,1.8660624E-1,-5.4385733E-2,6.51474E-2,-1.2476398E-1,-1.6338797E-2,-5.1001716E-1,-2.2869794E-2,-2.6926327E-1,3.0732062E-1,-7.055925E-2,-1.6051483E-1,9.0865016E-2,7.3264046E-3,-2.588403E-1,6.262315E-2,-1.8949537E-1,4.0573764E-1,1.7467849E-1,1.2103506E-1,-2.3148024E-1,1.4848466E-1,-1.0311208E-1,9.0760425E-2,1.2370623E-2,-4.4477705E-2,1.3394712E-1,2.1668602E-2,-2.3044746E-1,-5.32147E-2,1.6985342E-1,-3.3372322E-1,2.0384911E-2,-3.2942095E-1,-9.604073E-2],"categories":[],"categories_nodes":[],"categories_segments":[],"categories_sizes":[],"default_left":[0,0,0,0,0,1,1,0,0,1,0,0,1,0,0,0,0,1,0,0,1,1,0,0,0,0,0,0,0,1,1,0,0,0,0,0,0,0,0,0,0,0,0,0,0,0,0,0,0,0,0,0,0,0,0,0,0,0,0,0,0],"id":15,"left_children":[1,3,-1,5,7,9,11,13,15,17,19,21,23,25,27,29,31,33,-1,35,37,39,41,43,45,-1,47,49,51,53,55,57,59,-1,-1,-1,-1,-1,-1,-1,-1,-1,-1,-1,-1,-1,-1,-1,-1,-1,-1,-1,-1,-1,-1,-1,-1,-1,-1,-1,-1],"loss_changes":[3.242847E1,5.3317804E0,0E0,9.171787E0,4.934334E0,6.7323523E0,5.91745E0,8.505232E0,5.78308E0,4.336582E0,4.244931E0,4.3060794E0,5.235569E0,2.7765884E0,5.4761486E0,5.736785E0,4.6501765E0,4.3413258E0,0E0,1.5791264E0,3.1354904E0,7.442286E0,5.6156454E0,1.6223917E0,1.6443293E0,0E0,3.512268E0,3.8184652E0,7.659834E0,5.1684856E0,7.184983E0,3.834762E0,3.7650232E0,0E0,0E0,0E0,0E0,0E0,0E0,0E0,0E0,0E0,0E0,0E0,0E0,0E0,0E0,0E0,0E0,0E0,0E0,0E0,0E0,0E0,0E0,0E0,0E0,0E0,0E0,0E0,0E0],"parents":[2147483647,0,0,1,1,3,3,4,4,5,5,6,6,7,7,8,8,9,9,10,10,11,11,12,12,13,13,14,14,15,15,16,16,17,17,19,19,20,20,21,21,22,22,23,23,24,24,26,26,27,27,28,28,29,29,30,30,31,31,32,32],"right_children":[2,4,-1,6,8,10,12,14,16,18,20,22,24,26,28,30,32,34,-1,36,38,40,42,44,46,-1,48,50,52,54,56,58,60,-1,-1,-1,-1,-1,-1,-1,-1,-1,-1,-1,-1,-1,-1,-1,-1,-1,-1,-1,-1,-1,-1,-1,-1,-1,-1,-1,-1],"split_conditions":[2.012E3,2E0,-2.9291126E-1,2E0,5.8E1,6.1E1,8.6E1,1.1E1,3E0,1.2E2,1E0,1E0,6.6666657E-1,4.7E1,6E0,2E0,7.7E1,9.9999964E-1,3.532924E-1,7.499999E-1,1.4E1,3.8E1,3E0,9.2E1,8.8E1,2.6755884E-1,2E0,3.4E1,3E0,2.2E1,6.666666E-1,6E0,4E0,-2.2869794E-2,-2.6926327E-1,3.0732062E-1,-7.055925E-2,-1.6051483E-1,9.0865016E-2,7.3264046E-3,-2.588403E-1,6.262315E-2,-1.8949537E-1,4.0573764E-1,1.7467849E-1,1.2103506E-1,-2.3148024E-1,1.4848466E-1,-1.0311208E-1,9.0760425E-2,1.2370623E-2,-4.4477705E-2,1.3394712E-1,2.1668602E-2,-2.3044746E-1,-5.32147E-2,1.6985342E-1,-3.3372322E-1,2.0384911E-2,-3.2942095E-1,-9.604073E-2],"split_indices":[5,9,0,10,0,3,7,3,9,7,10,15,6,0,1,2,0,6,0,6,1,7,10,3,3,0,10,7,10,1,6,3,1,0,0,0,0,0,0,0,0,0,0,0,0,0,0,0,0,0,0,0,0,0,0,0,0,0,0,0,0],"split_type":[0,0,0,0,0,0,0,0,0,0,0,0,0,0,0,0,0,0,0,0,0,0,0,0,0,0,0,0,0,0,0,0,0,0,0,0,0,0,0,0,0,0,0,0,0,0,0,0,0,0,0,0,0,0,0,0,0,0,0,0,0],"sum_hessian":[2.4044128E3,2.3717441E3,3.266876E1,8.0265155E2,1.5690927E3,5.899856E2,2.1266592E2,4.341877E2,1.1349049E3,5.24402E2,6.558363E1,1.9060918E2,2.2056747E1,4.7365677E1,3.8682205E2,1.0593484E3,7.555655E1,5.2267065E2,1.7313542E0,2.8856478E0,6.2697987E1,5.3322975E1,1.3728621E2,1.8477936E1,3.5788121E0,1.4324613E1,3.3041065E1,2.2632016E2,1.6050188E2,8.6548346E2,1.9386496E2,3.9689754E1,3.5866795E1,5.1714246E2,5.5281878E0,1.8347182E0,1.0509295E0,5.8497925E1,4.2000613E0,4.2153965E1,1.116901E1,1.2978021E2,7.505992E0,4.018283E0,1.4459653E1,1.0400739E0,2.5387383E0,2.774151E1,5.299555E0,1.2530912E2,1.0101105E2,1.3576167E2,2.4740204E1,8.590963E2,6.387116E0,1.808367E2,1.3028252E1,1.9631867E0,3.7726566E1,7.58708E0,2.8279715E1],"tree_param":{"num_deleted":"0","num_feature":"17","num_nodes":"61","size_leaf_vector":"1"}},{"base_weights":[-1.2698639E-3,9.163761E-3,-2.8955826E-1,6.00685E-3,6.491101E-1,-5.0445594E-2,3.3061165E-2,2.89988E-1,2.1257608E-1,-1.1702427E0,-4.2053226E-2,3.8184524E-2,-3.8872585E-1,4.9107313E-1,-7.648276E-2,-5.5417246E-1,-4.534776E-1,2.5474972E-1,-8.984209E-2,3.1604376E-2,3.352912E-1,-6.103922E-1,2.2993156E-1,-5.1819447E-2,2.5695837E-1,-2.221026E-1,-4.661367E-2,8.722405E-2,-4.2054933E-2,-2.4803651E-2,-2.8246692E-1,1.0570801E-2,-2.9883817E-1,1.8061885E-1,-3.4705065E-2,-2.5304714E-1,2.858521E-2,2.2419767E-1,-1.9330938E-1],"categories":[],"categories_nodes":[],"categories_segments":[],"categories_sizes":[],"default_left":[0,0,0,0,0,0,0,0,0,0,0,1,0,0,0,0,0,0,0,1,0,0,1,0,0,0,0,0,0,0,0,0,0,0,0,0,0,0,0],"id":16,"left_children":[1,3,-1,5,7,9,11,-1,13,15,17,19,21,23,-1,25,-1,27,29,31,33,35,37,-1,-1,-1,-1,-1,-1,-1,-1,-1,-1,-1,-1,-1,-1,-1,-1],"loss_changes":[2.390372E1,4.7466073E0,0E0,3.5768943E0,1.3931508E0,7.0817757E0,3.4358883E0,0E0,9.244421E-1,3.414979E-1,1.0720226E1,3.0490296E0,2.758041E0,1.1640761E0,0E0,1.5060711E-1,0E0,1.5314064E0,3.8898878E0,5.753846E0,4.136769E0,2.4370022E0,3.0878582E0,0E0,0E0,0E0,0E0,0E0,0E0,0E0,0E0,0E0,0E0,0E0,0E0,0E0,0E0,0E0,0E0],"parents":[2147483647,0,0,1,1,3,3,4,4,5,5,6,6,8,8,9,9,10,10,11,11,12,12,13,13,15,15,17,17,18,18,19,19,20,20,21,21,22,22],"right_children":[2,4,-1,6,8,10,12,-1,14,16,18,20,22,24,-1,26,-1,28,30,32,34,36,38,-1,-1,-1,-1,-1,-1,-1,-1,-1,-1,-1,-1,-1,-1,-1,-1],"split_conditions":[2.012E3,2E0,-2.8955826E-1,2E0,6.7E1,1E0,1E0,2.89988E-1,5E0,2E0,1E1,2.04E2,4.9999976E-1,7.1E1,-7.648276E-2,6.3E1,-4.534776E-1,1E0,4E0,1.8E2,9.97E2,3.6E1,3.2E1,-5.1819447E-2,2.5695837E-1,-2.221026E-1,-4.661367E-2,8.722405E-2,-4.2054933E-2,-2.4803651E-2,-2.8246692E-1,1.0570801E-2,-2.9883817E-1,1.8061885E-1,-3.4705065E-2,-2.5304714E-1,2.858521E-2,2.2419767E-1,-1.9330938E-1],"split_indices":[5,11,0,4,0,3,12,0,4,9,7,7,6,0,0,0,0,15,14,7,7,7,7,0,0,0,0,0,0,0,0,0,0,0,0,0,0,0,0],"split_type":[0,0,0,0,0,0,0,0,0,0,0,0,0,0,0,0,0,0,0,0,0,0,0,0,0,0,0,0,0,0,0,0,0,0,0,0,0,0,0],"sum_hessian":[2.3748918E3,2.350441E3,2.4450943E1,2.3399075E3,1.053358E1,7.5779736E2,1.58211E3,5.395093E0,5.138487E0,4.6072636E0,7.531901E2,1.5640216E3,1.8088364E1,3.1886513E0,1.9498359E0,2.5779798E0,2.0292835E0,1.0385372E2,6.4933636E2,1.5312156E3,3.2806107E1,1.3326727E1,4.7616363E0,1.3194251E0,1.8692261E0,1.1736356E0,1.4043443E0,9.542021E1,8.433507E0,6.4500867E2,4.327709E0,1.5267861E3,4.4293885E0,2.0402245E1,1.2403862E1,9.870891E0,3.4558363E0,3.0826192E0,1.6790168E0],"tree_param":{"num_deleted":"0","num_feature":"17","num_nodes":"39","size_leaf_vector":"1"}},{"base_weights":[-1.4286446E-3,6.431232E-3,-2.854878E-1,9.048428E-3,-5.383917E-1,-8.433832E-2,2.4765017E-2,2.2952817E-1,-7.590296E-1,-1.3497524E-1,8.71401E-2,-5.4607634E-2,4.559274E-2,-3.050138E-1,-5.348916E-1,-1.5385368E-1,4.5183852E-1,1.8109995E-1,-3.252093E-1,-2.2508176E-1,1.0522261E-2,1.5126094E-1,2.0405848E-2,-3.730866E-2,-7.563265E-1,-3.790284E-2,-1.7291391E-1,2.665647E-1,-2.7093053E-2,1.1701607E-1,-3.022471E-2,-2.168543E-1,9.502352E-2,-8.978702E-2,1.9764441E-1,3.1656772E-2,-5.289535E-2,5.415061E-2,-1.4549175E-1,1.0036451E-2,-7.609487E-2,2.1267794E-2,-4.235475E-2,-2.602573E-1,-8.336964E-2],"categories":[],"categories_nodes":[],"categories_segments":[],"categories_sizes":[],"default_left":[0,0,0,0,0,0,0,0,0,1,0,0,0,0,0,1,0,0,0,0,0,1,0,0,0,0,0,0,0,0,0,0,0,0,0,0,0,0,0,0,0,0,0,0,0],"id":17,"left_children":[1,3,-1,5,7,9,11,-1,13,15,17,19,21,-1,23,25,27,29,31,33,35,37,39,41,43,-1,-1,-1,-1,-1,-1,-1,-1,-1,-1,-1,-1,-1,-1,-1,-1,-1,-1,-1,-1],"loss_changes":[1.7612127E1,3.3401325E0,0E0,3.4201815E0,3.8015425E0,2.926711E0,3.2991078E0,0E0,3.8342476E-2,2.9449868E0,3.047617E0,4.6096387E0,4.202496E0,0E0,7.9825044E-1,2.8589835E0,2.0558252E0,3.7770555E0,3.9745002E0,7.724238E0,5.3649306E0,5.743136E0,4.57589E0,4.7794558E-2,3.2310486E-2,0E0,0E0,0E0,0E0,0E0,0E0,0E0,0E0,0E0,0E0,0E0,0E0,0E0,0E0,0E0,0E0,0E0,0E0,0E0,0E0],"parents":[2147483647,0,0,1,1,3,3,4,4,5,5,6,6,8,8,9,9,10,10,11,11,12,12,14,14,15,15,16,16,17,17,18,18,19,19,20,20,21,21,22,22,23,23,24,24],"right_children":[2,4,-1,6,8,10,12,-1,14,16,18,20,22,-1,24,26,28,30,32,34,36,38,40,42,44,-1,-1,-1,-1,-1,-1,-1,-1,-1,-1,-1,-1,-1,-1,-1,-1,-1,-1,-1,-1],"split_conditions":[2.012E3,9.5E1,-2.854878E-1,1E0,1.3E1,2E0,2E0,2.2952817E-1,2.4E1,1.6E2,3E0,1E0,5.4E1,-3.050138E-1,4.1E1,8.7E1,9.92E2,9E0,9.9E1,3E0,4.7E1,1.4E1,4E1,3.1E1,9.7E1,-3.790284E-2,-1.7291391E-1,2.665647E-1,-2.7093053E-2,1.1701607E-1,-3.022471E-2,-2.168543E-1,9.502352E-2,-8.978702E-2,1.9764441E-1,3.1656772E-2,-5.289535E-2,5.415061E-2,-1.4549175E-1,1.0036451E-2,-7.609487E-2,2.1267794E-2,-4.235475E-2,-2.602573E-1,-8.336964E-2],"split_indices":[5,0,0,11,3,10,8,0,3,7,9,15,0,0,7,7,3,4,4,10,7,1,4,3,0,0,0,0,0,0,0,0,0,0,0,0,0,0,0,0,0,0,0,0,0],"split_type":[0,0,0,0,0,0,0,0,0,0,0,0,0,0,0,0,0,0,0,0,0,0,0,0,0,0,0,0,0,0,0,0,0,0,0,0,0,0,0,0,0,0,0,0,0],"sum_hessian":[2.3563894E3,2.3380427E3,1.8346674E1,2.3278438E3,1.0198999E1,3.347023E2,1.9931414E3,1.1192203E0,9.079779E0,2.5856262E2,7.613967E1,4.139587E2,1.5791827E3,2.5788603E0,6.5009184E0,2.5121846E2,7.3441615E0,6.2466557E1,1.3673112E1,1.13755E2,3.002037E2,3.0299646E2,1.2761863E3,2.3619356E0,4.138983E0,2.3708101E2,1.4137459E1,3.713739E0,3.6304226E0,3.5651672E1,2.6814886E1,8.365411E0,5.307701E0,1.0555448E2,8.200521E0,1.9930219E2,1.0090153E2,2.9036755E2,1.2628903E1,1.2190212E3,5.716506E1,1.3123863E0,1.0495493E0,2.6985052E0,1.4404776E0],"tree_param":{"num_deleted":"0","num_feature":"17","num_nodes":"45","size_leaf_vector":"1"}},{"base_weights":[-1.4233955E-3,4.5289807E-3,-2.80484E-1,2.0340045E-3,5.560513E-1,6.7419643E-3,-2.184113E-1,2.5991234E-1,1.8233547E-1,-4.085071E-2,3.0330164E-2,-6.5032566E-1,-8.427889E-3,-5.5756956E-2,1.9724463E-1,-8.899911E-1,-3.423226E-2,1.5416394E-2,1.8422434E-1,-1.091705E0,8.000419E-2,-1.3315398E-1,7.614979E-1,-1.648866E-1,3.366047E-1,-4.025333E-2,-3.0649275E-1,7.561491E-2,-1.869215E-2,6.580639E-3,-1.0539033E-1,2.5359672E-1,5.4509315E-4,-3.7788188E-1,2.3465455E-2,-1.4016666E-1,3.1008884E-1,-2.6670265E-1,6.0003707E-3,4.510864E-2,2.7690604E-1,-2.857274E-3,1.575504E-1],"categories":[],"categories_nodes":[],"categories_segments":[],"categories_sizes":[],"default_left":[0,0,0,1,0,0,1,0,0,0,0,0,0,0,0,0,0,0,0,0,0,0,0,0,0,0,0,0,0,0,0,0,0,0,0,0,0,0,0,0,0,0,0],"id":18,"left_children":[1,3,-1,5,7,9,11,-1,13,15,17,19,21,23,-1,25,27,29,31,33,35,37,39,-1,41,-1,-1,-1,-1,-1,-1,-1,-1,-1,-1,-1,-1,-1,-1,-1,-1,-1,-1],"loss_changes":[1.2992323E1,3.1961803E0,0E0,2.4031637E0,1.0551434E0,2.5458832E0,4.3857822E0,0E0,7.1679294E-1,4.193358E0,3.476869E0,5.188827E0,3.3272486E0,1.1397144E0,0E0,4.3732023E-1,6.017974E0,3.3146172E0,1.6139816E1,2.049592E0,4.0801706E0,3.462911E0,3.3819127E-1,0E0,2.2467801E-1,0E0,0E0,0E0,0E0,0E0,0E0,0E0,0E0,0E0,0E0,0E0,0E0,0E0,0E0,0E0,0E0,0E0,0E0],"parents":[2147483647,0,0,1,1,3,3,4,4,5,5,6,6,8,8,9,9,10,10,11,11,12,12,13,13,15,15,16,16,17,17,18,18,19,19,20,20,21,21,22,22,24,24],"right_children":[2,4,-1,6,8,10,12,-1,14,16,18,20,22,24,-1,26,28,30,32,34,36,38,40,-1,42,-1,-1,-1,-1,-1,-1,-1,-1,-1,-1,-1,-1,-1,-1,-1,-1,-1,-1],"split_conditions":[2.012E3,2E0,-2.80484E-1,9.9999964E-1,6.7E1,2E0,3.3E1,2.5991234E-1,3E0,1E0,9.99999E-1,2.011E3,2E0,4.1E1,1.9724463E-1,2E0,8E0,4E1,3.4E1,1E0,1.6E1,2E0,7E0,-1.648866E-1,2E0,-4.025333E-2,-3.0649275E-1,7.561491E-2,-1.869215E-2,6.580639E-3,-1.0539033E-1,2.5359672E-1,5.4509315E-4,-3.7788188E-1,2.3465455E-2,-1.4016666E-1,3.1008884E-1,-2.6670265E-1,6.0003707E-3,4.510864E-2,2.7690604E-1,-2.857274E-3,1.575504E-1],"split_indices":[5,11,0,6,0,4,3,0,14,3,6,5,2,7,0,1,7,4,4,12,1,8,1,0,10,0,0,0,0,0,0,0,0,0,0,0,0,0,0,0,0,0,0],"split_type":[0,0,0,0,0,0,0,0,0,0,0,0,0,0,0,0,0,0,0,0,0,0,0,0,0,0,0,0,0,0,0,0,0,0,0,0,0,0,0,0,0,0,0],"sum_hessian":[2.3363823E3,2.3225684E3,1.3814124E1,2.313108E3,9.460346E0,2.26569E3,4.741799E1,4.448318E0,5.0120287E0,7.505708E2,1.5151191E3,1.4825802E1,3.259219E1,3.9269276E0,1.085101E0,4.7726583E0,7.4579816E2,1.382265E3,1.3285411E2,8.93255E0,5.8932514E0,2.876017E1,3.8320208E0,1.5611306E0,2.365797E0,1.0075397E0,3.7651184E0,6.589403E1,6.799041E2,1.3590458E3,2.3219316E1,2.7943687E1,1.04910416E2,7.7444496E0,1.1881008E0,4.0685945E0,1.8246571E0,4.0361667E0,2.4724003E1,1.2047251E0,2.6272955E0,1.1691612E0,1.1966358E0],"tree_param":{"num_deleted":"0","num_feature":"17","num_nodes":"43","size_leaf_vector":"1"}},{"base_weights":[-1.0592672E-3,3.4595178E-3,-2.743398E-1,-1.0234921E-3,2.269702E-1,1.194936E-3,-8.614937E-1,6.990254E-1,-8.183411E-2,8.584323E-3,-1.4295956E-1,-1.0821784E0,6.710703E-3,8.166312E-1,-9.063556E-3,-2.9151034E-1,3.3434933E-1,9.240368E-2,-7.888533E-3,-4.1310358E-1,-4.6331953E-2,-4.0508637E-1,-6.5086655E-2,9.655133E-1,2.235503E-1,-2.474081E-1,2.1325463E-1,-7.594698E-1,-1.6282046E-2,6.203887E-1,-9.091176E-2,4.8739932E-2,-4.3350168E-2,6.3244994E-3,-1.597417E-2,-3.0879809E-2,-2.543906E-1,1.1051074E-1,-5.099288E-2,5.6302346E-2,3.1151146E-1,-1.8317798E-1,2.1491207E-1,5.0674655E-2,-2.9380053E-1,8.413482E-2,-1.4815378E-1,1.221164E-2,3.6169782E-1,-1.2057517E-1,1.13304175E-1],"categories":[],"categories_nodes":[],"categories_segments":[],"categories_sizes":[],"default_left":[0,1,0,1,0,1,1,0,0,0,0,0,0,0,0,0,0,1,1,0,0,0,0,0,0,0,0,0,1,0,0,0,0,0,0,0,0,0,0,0,0,0,0,0,0,0,0,0,0,0,0],"id":19,"left_children":[1,3,-1,5,7,9,11,13,15,17,19,21,-1,23,25,27,29,31,33,35,37,-1,-1,39,41,-1,-1,43,45,47,49,-1,-1,-1,-1,-1,-1,-1,-1,-1,-1,-1,-1,-1,-1,-1,-1,-1,-1,-1,-1],"loss_changes":[9.599147E0,2.31931E0,0E0,4.3340874E0,6.69178E0,2.414038E0,1.1630516E0,1.5149994E0,2.5765781E0,2.9770498E0,2.865396E0,7.955437E-1,0E0,1.1559896E0,2.6810572E0,2.489604E0,1.2708111E0,5.901411E0,2.3696458E0,3.8224912E0,4.293749E0,0E0,0E0,4.9184036E-1,2.253909E0,0E0,0E0,1.629406E0,2.016658E0,2.0193276E0,8.639909E-1,0E0,0E0,0E0,0E0,0E0,0E0,0E0,0E0,0E0,0E0,0E0,0E0,0E0,0E0,0E0,0E0,0E0,0E0,0E0,0E0],"parents":[2147483647,0,0,1,1,3,3,4,4,5,5,6,6,7,7,8,8,9,9,10,10,11,11,13,13,14,14,15,15,16,16,17,17,18,18,19,19,20,20,23,23,24,24,27,27,28,28,29,29,30,30],"right_children":[2,4,-1,6,8,10,12,14,16,18,20,22,-1,24,26,28,30,32,34,36,38,-1,-1,40,42,-1,-1,44,46,48,50,-1,-1,-1,-1,-1,-1,-1,-1,-1,-1,-1,-1,-1,-1,-1,-1,-1,-1,-1,-1],"split_conditions":[2.012E3,9.9E2,-2.743398E-1,2.62E2,9.93E2,7.6E1,2.8571424E-1,1E0,2E0,5E1,8.4E1,4.4E2,6.710703E-3,8E1,9.0909086E-2,2E0,6.6E1,3E0,2.5E1,9.333333E-1,9.1E1,-4.0508637E-1,-6.5086655E-2,4.6E1,8.2E1,-2.474081E-1,2.1325463E-1,1E0,4E0,9.999998E-1,1E0,4.8739932E-2,-4.3350168E-2,6.3244994E-3,-1.597417E-2,-3.0879809E-2,-2.543906E-1,1.1051074E-1,-5.099288E-2,5.6302346E-2,3.1151146E-1,-1.8317798E-1,2.1491207E-1,5.0674655E-2,-2.9380053E-1,8.413482E-2,-1.4815378E-1,1.221164E-2,3.6169782E-1,-1.2057517E-1,1.13304175E-1],"split_indices":[5,3,0,7,7,3,6,15,10,0,7,7,0,0,6,4,0,1,3,6,7,0,0,0,0,0,0,11,1,6,4,0,0,0,0,0,0,0,0,0,0,0,0,0,0,0,0,0,0,0,0],"split_type":[0,0,0,0,0,0,0,0,0,0,0,0,0,0,0,0,0,0,0,0,0,0,0,0,0,0,0,0,0,0,0,0,0,0,0,0,0,0,0,0,0,0,0,0,0,0,0,0,0,0,0],"sum_hessian":[2.3238965E3,2.3134478E3,1.0448824E1,2.2689346E3,4.4513172E1,2.264096E3,4.8385854E0,1.7103765E1,2.7409405E1,2.1545916E3,1.0950433E2,3.6923084E0,1.1462767E0,1.4536177E1,2.5675888E0,1.8425879E1,8.983527E0,3.5313156E2,1.80146E3,2.7986532E1,8.15178E1,2.3908296E0,1.3014789E0,1.1117395E1,3.418781E0,1.135532E0,1.4320569E0,6.17217E0,1.2253708E1,5.0966043E0,3.886923E0,2.727746E2,8.035696E1,1.0996553E3,7.0180475E2,1.7057112E1,1.092942E1,1.826799E1,6.324981E1,1.2584091E0,9.858986E0,1.1809524E0,2.2378285E0,1.2262093E0,4.9459605E0,7.8123198E0,4.441388E0,3.0978642E0,1.9987402E0,2.4218354E0,1.4650877E0],"tree_param":{"num_deleted":"0","num_feature":"17","num_nodes":"51","size_leaf_vector":"1"}},{"base_weights":[-8.938861E-4,2.5595247E-3,-2.668803E-1,5.774738E-3,-2.9333562E-1,3.794185E-3,4.6932238E-1,3.5726614E-2,-6.4122206E-1,5.8692074E-3,-3.8451967E-1,1.4329661E-1,7.528324E-1,-2.6909474E-1,6.557778E-1,-2.2384721E-1,4.834726E-2,-6.270455E-2,1.7639382E-2,4.0754445E-2,-8.203198E-1,-1.0128308E-1,3.9963064E-1,2.8544837E-1,5.4041732E-2,8.3398804E-2,-7.48436E-1,4.000297E-1,-8.527683E-2,-1.4514571E-1,-1.4447377E-2,6.0546123E-3,-1.2652765E-1,-2.63302E-1,1.05442844E-1,-3.423917E-2,-2.8363726E-1,1.988612E-1,8.710219E-3,-1.1206343E-1,8.342354E-2,5.1641773E-2,-3.408315E-1],"categories":[],"categories_nodes":[],"categories_segments":[],"categories_sizes":[],"default_left":[0,0,0,0,0,0,1,0,0,0,0,0,1,0,0,0,0,0,1,0,0,0,0,0,0,0,0,0,0,0,0,0,0,0,0,0,0,0,0,0,0,0,0],"id":20,"left_children":[1,3,-1,5,7,9,11,13,15,17,19,21,23,25,27,-1,-1,29,31,33,35,-1,37,-1,-1,39,41,-1,-1,-1,-1,-1,-1,-1,-1,-1,-1,-1,-1,-1,-1,-1,-1],"loss_changes":[7.095731E0,2.1929958E0,0E0,2.0910234E0,2.8594358E0,1.8320196E0,7.8778243E-1,2.762219E0,1.1388264E0,1.8250217E0,2.2732427E0,8.4276927E-1,3.9152718E-1,1.7319511E0,3.436676E0,0E0,0E0,2.0059896E0,2.1642237E0,2.325844E0,4.2374086E-1,0E0,3.908372E-1,0E0,0E0,6.9042563E-1,1.7256336E0,0E0,0E0,0E0,0E0,0E0,0E0,0E0,0E0,0E0,0E0,0E0,0E0,0E0,0E0,0E0,0E0],"parents":[2147483647,0,0,1,1,3,3,4,4,5,5,6,6,7,7,8,8,9,9,10,10,11,11,12,12,13,13,14,14,17,17,18,18,19,19,20,20,22,22,25,25,26,26],"right_children":[2,4,-1,6,8,10,12,14,16,18,20,22,24,26,28,-1,-1,30,32,34,36,-1,38,-1,-1,40,42,-1,-1,-1,-1,-1,-1,-1,-1,-1,-1,-1,-1,-1,-1,-1,-1],"split_conditions":[2.012E3,9.3E1,-2.668803E-1,2E0,2.6E1,5E0,2E1,2E1,1.7E1,1E0,9.999995E-1,2E0,1.3333333E-1,2.011E3,9.5E1,-2.2384721E-1,4.834726E-2,3.4E1,9.98E2,3.3E1,3.6E1,-1.0128308E-1,2.011E3,2.8544837E-1,5.4041732E-2,1E0,1E0,4.000297E-1,-8.527683E-2,-1.4514571E-1,-1.4447377E-2,6.0546123E-3,-1.2652765E-1,-2.63302E-1,1.05442844E-1,-3.423917E-2,-2.8363726E-1,1.988612E-1,8.710219E-3,-1.1206343E-1,8.342354E-2,5.1641773E-2,-3.408315E-1],"split_indices":[5,0,0,11,3,14,7,7,4,11,6,9,6,5,0,0,0,0,3,7,3,0,5,0,0,1,1,0,0,0,0,0,0,0,0,0,0,0,0,0,0,0,0],"split_type":[0,0,0,0,0,0,0,0,0,0,0,0,0,0,0,0,0,0,0,0,0,0,0,0,0,0,0,0,0,0,0,0,0,0,0,0,0,0,0,0,0,0,0],"sum_hessian":[2.3102712E3,2.3023218E3,7.949431E0,2.2785435E3,2.3778294E1,2.2698535E3,8.689986E0,1.2680882E1,1.1097412E1,2.258768E3,1.1085236E1,4.7421412E0,3.9478447E0,8.880957E0,3.7999258E0,9.875909E0,1.2215027E0,3.3026962E2,1.9284985E3,6.0691547E0,5.016081E0,1.538569E0,3.2035725E0,2.4399946E0,1.50785E0,5.5936E0,3.2873564E0,1.9649402E0,1.8349855E0,9.950478E0,3.2031915E2,1.9183517E3,1.0146824E1,1.0729911E0,4.996164E0,1.042874E0,3.973207E0,1.4119711E0,1.7916014E0,1.3966584E0,4.1969414E0,1.1388822E0,2.1484742E0],"tree_param":{"num_deleted":"0","num_feature":"17","num_nodes":"43","size_leaf_vector":"1"}},{"base_weights":[-1.1249464E-3,1.5258143E-3,-2.5799465E-1,-2.8106326E-3,2.1744755E-1,2.3107196E-4,-4.9467105E-1,4.487163E-1,-9.0999715E-2,-4.30298E-2,2.2642456E-2,-5.5900097E-1,-1.8235712E-1,6.8961525E-1,5.8886513E-2,-2.5901946E-1,5.374035E-1,-3.4601685E-2,-4.516632E-1,2.6844857E-2,-5.973812E-1,-9.0097886E-1,4.5376006E-1,2.6133355E-1,1.7977685E-1,3.1739455E-1,-5.9427536E-1,1.9726202E-2,-5.107754E-1,2.5911564E-1,1.3924165E-1,6.1873905E-2,-1.4547488E-2,-2.1647033E-1,2.59109E-1,6.509314E-3,3.5681206E-1,9.615902E-3,-2.4888374E-1,9.071143E-2,-3.8594523E-1,-2.4598856E-1,3.029528E-1,-1.3734712E-1,1.6261142E-1,1.4945096E-1,-1.531047E-1,-3.204286E-1,4.6040174E-2,8.947297E-2,-1.971197E-1,-2.5378057E-1,7.267505E-2,1.4319174E-1,-7.44481E-2],"categories":[],"categories_nodes":[],"categories_segments":[],"categories_sizes":[],"default_left":[0,1,0,1,0,0,0,0,0,1,1,0,0,0,0,0,0,0,0,1,0,0,0,0,0,0,0,1,1,0,0,0,0,0,0,0,0,0,0,0,0,0,0,0,0,0,0,0,0,0,0,0,0,0,0],"id":21,"left_children":[1,3,-1,5,7,9,11,13,15,17,19,-1,21,23,25,27,29,31,33,35,37,39,41,-1,43,45,47,49,51,-1,53,-1,-1,-1,-1,-1,-1,-1,-1,-1,-1,-1,-1,-1,-1,-1,-1,-1,-1,-1,-1,-1,-1,-1,-1],"loss_changes":[5.24723E0,2.152455E0,0E0,3.3721628E0,3.2693477E0,2.1737514E0,5.5817647E0,2.4042406E0,2.2746274E0,2.6194782E0,3.864283E0,0E0,6.0716267E0,1.3236885E0,2.052149E0,1.1773019E0,4.7636056E-1,2.5215282E0,6.083086E0,8.757883E0,1.4862733E0,3.2427187E0,5.9533668E0,0E0,1.5092583E0,1.5349845E0,1.3960389E0,1.8653314E0,2.4200315E0,0E0,5.454677E-1,0E0,0E0,0E0,0E0,0E0,0E0,0E0,0E0,0E0,0E0,0E0,0E0,0E0,0E0,0E0,0E0,0E0,0E0,0E0,0E0,0E0,0E0,0E0,0E0],"parents":[2147483647,0,0,1,1,3,3,4,4,5,5,6,6,7,7,8,8,9,9,10,10,12,12,13,13,14,14,15,15,16,16,17,17,18,18,19,19,20,20,21,21,22,22,24,24,25,25,26,26,27,27,28,28,30,30],"right_children":[2,4,-1,6,8,10,12,14,16,18,20,-1,22,24,26,28,30,32,34,36,38,40,42,-1,44,46,48,50,52,-1,54,-1,-1,-1,-1,-1,-1,-1,-1,-1,-1,-1,-1,-1,-1,-1,-1,-1,-1,-1,-1,-1,-1,-1,-1],"split_conditions":[2.012E3,2.1E2,-2.5799465E-1,1.8E2,9.97E2,2E0,4.1E1,6.6E1,7.4E1,9.999995E-1,1.2E2,-5.5900097E-1,8E0,1E1,9.93E2,2.011E3,2.011E3,3.9E1,1.1E2,1.05E2,5E0,2E0,1.85E2,2.6133355E-1,1.6E1,3E0,2E0,6E0,1.9999997E-1,2.5911564E-1,9.98E2,6.1873905E-2,-1.4547488E-2,-2.1647033E-1,2.59109E-1,6.509314E-3,3.5681206E-1,9.615902E-3,-2.4888374E-1,9.071143E-2,-3.8594523E-1,-2.4598856E-1,3.029528E-1,-1.3734712E-1,1.6261142E-1,1.4945096E-1,-1.531047E-1,-3.204286E-1,4.6040174E-2,8.947297E-2,-1.971197E-1,-2.5378057E-1,7.267505E-2,1.4319174E-1,-7.44481E-2],"split_indices":[5,3,0,7,7,9,0,0,0,6,3,0,4,4,3,5,5,0,7,3,4,9,7,0,4,9,4,1,6,0,3,0,0,0,0,0,0,0,0,0,0,0,0,0,0,0,0,0,0,0,0,0,0,0,0],"split_type":[0,0,0,0,0,0,0,0,0,0,0,0,0,0,0,0,0,0,0,0,0,0,0,0,0,0,0,0,0,0,0,0,0,0,0,0,0,0,0,0,0,0,0,0,0,0,0,0,0,0,0,0,0,0,0],"sum_hessian":[2.3032522E3,2.2971604E3,6.0916896E0,2.2529016E3,4.4258984E1,2.2400483E3,1.285311E1,2.5034079E1,1.9224905E1,7.641274E2,1.475921E3,1.4653258E0,1.1387784E1,1.4997326E1,1.0036753E1,1.563287E1,3.592036E0,7.497484E2,1.437898E1,1.4669352E3,8.9859E0,5.1516223E0,6.2361617E0,1.0537497E1,4.4598303E0,7.5590863E0,2.4776666E0,7.8561444E0,7.776725E0,1.3315187E0,2.2605174E0,4.0125954E1,7.0962244E2,1.2305408E1,2.0735724E0,1.461483E3,5.4521146E0,2.6541452E0,6.331754E0,1.3022647E0,3.8493576E0,1.750975E0,4.4851866E0,1.5202713E0,2.939559E0,6.530923E0,1.0281634E0,1.2543805E0,1.2232862E0,5.9619703E0,1.8941741E0,5.2961226E0,2.4806023E0,1.0832002E0,1.1773171E0],"tree_param":{"num_deleted":"0","num_feature":"17","num_nodes":"55","size_leaf_vector":"1"}},{"base_weights":[-1.0416597E-3,1.0116638E-3,-2.4767138E-1,-3.2771174E-3,1.9077908E-1,3.8555218E-3,-1.9587576E-1,5.5601674E-1,-2.4612734E-1,9.440989E-3,-1.5063493E-1,-4.5293003E-2,-7.2341835E-1,7.2917235E-1,-5.19088E-1,-5.5762284E-2,-6.7925024E-1,3.868239E-3,1.8309776E-1,-8.1708336E-1,-8.650108E-2,-2.1623258E-1,2.6164404E-1,1.6200827E-1,-9.1206443E-1,1.0813713E0,4.537677E-1,-2.4238835E-1,-1.6071247E-2,-8.2351124E-1,1.833148E-1,-5.90518E-3,-8.493958E-1,3.0361603E-3,-6.0819414E-2,2.058136E-2,2.2483164E-1,1.2163592E-1,-3.3986223E-1,-4.424424E-1,-9.277017E-3,2.1625052E-1,-9.198893E-2,2.210013E-1,-2.408563E-2,-3.0519548E-1,-9.691961E-3,3.6240482E-1,6.4027816E-2,1.9314955E-1,-1.4033715E-1,-4.3006267E-2,-3.113684E-1,-9.3058474E-2,9.984938E-2,-6.0902398E-2,-2.976389E-1],"categories":[],"categories_nodes":[],"categories_segments":[],"categories_sizes":[],"default_left":[0,0,0,0,0,0,0,0,0,1,0,0,0,0,0,0,0,1,1,0,0,0,0,0,1,1,1,0,0,0,0,0,0,0,0,0,0,0,0,0,0,0,0,0,0,0,0,0,0,0,0,0,0,0,0,0,0],"id":22,"left_children":[1,3,-1,5,7,9,11,13,15,17,19,21,23,25,27,29,31,33,35,37,39,41,43,-1,45,47,49,-1,-1,51,53,-1,55,-1,-1,-1,-1,-1,-1,-1,-1,-1,-1,-1,-1,-1,-1,-1,-1,-1,-1,-1,-1,-1,-1,-1,-1],"loss_changes":[3.8908606E0,1.8668047E0,0E0,3.0824232E0,8.226189E0,1.8688657E0,6.332608E0,5.575735E0,1.922415E0,2.0214674E0,3.159398E0,3.3831723E0,4.7175484E0,1.8819733E0,5.560564E-1,3.3824635E0,7.87874E-1,2.6185944E0,4.1600304E0,2.9747853E0,5.3598394E0,3.7169976E0,3.8163862E0,0E0,1.4297619E0,8.425951E-1,3.0073493E0,0E0,0E0,4.8734283E-1,1.154192E0,0E0,3.2223463E-1,0E0,0E0,0E0,0E0,0E0,0E0,0E0,0E0,0E0,0E0,0E0,0E0,0E0,0E0,0E0,0E0,0E0,0E0,0E0,0E0,0E0,0E0,0E0,0E0],"parents":[2147483647,0,0,1,1,3,3,4,4,5,5,6,6,7,7,8,8,9,9,10,10,11,11,12,12,13,13,14,14,15,15,16,16,17,17,18,18,19,19,20,20,21,21,22,22,24,24,25,25,26,26,29,29,30,30,32,32],"right_children":[2,4,-1,6,8,10,12,14,16,18,20,22,24,26,28,30,32,34,36,38,40,42,44,-1,46,48,50,-1,-1,52,54,-1,56,-1,-1,-1,-1,-1,-1,-1,-1,-1,-1,-1,-1,-1,-1,-1,-1,-1,-1,-1,-1,-1,-1,-1,-1],"split_conditions":[2.012E3,9.7E1,-2.4767138E-1,4E1,2.011E3,3E0,9.7E1,8.3E1,7.2E1,1.35E2,3E0,4.4E1,4.1E1,2E0,8.9E1,2.6E1,2.5E1,9.1E1,9E0,7E0,3E0,9E0,2.011E3,1.6200827E-1,2.2E2,6E1,3.2E1,-2.4238835E-1,-1.6071247E-2,1.3E1,1E0,-5.90518E-3,7.7E1,3.0361603E-3,-6.0819414E-2,2.058136E-2,2.2483164E-1,1.2163592E-1,-3.3986223E-1,-4.424424E-1,-9.277017E-3,2.1625052E-1,-9.198893E-2,2.210013E-1,-2.408563E-2,-3.0519548E-1,-9.691961E-3,3.6240482E-1,6.4027816E-2,1.9314955E-1,-1.4033715E-1,-4.3006267E-2,-3.113684E-1,-9.3058474E-2,9.984938E-2,-6.0902398E-2,-2.976389E-1],"split_indices":[5,4,0,4,5,9,7,0,0,7,8,3,0,10,0,3,3,7,1,3,7,3,5,0,7,3,7,0,0,3,11,0,0,0,0,0,0,0,0,0,0,0,0,0,0,0,0,0,0,0,0,0,0,0,0,0,0],"split_type":[0,0,0,0,0,0,0,0,0,0,0,0,0,0,0,0,0,0,0,0,0,0,0,0,0,0,0,0,0,0,0,0,0,0,0,0,0,0,0,0,0,0,0,0,0,0,0,0,0,0,0,0,0,0,0,0,0],"sum_hessian":[2.2966763E3,2.2919673E3,4.7089067E0,2.2422742E3,4.9693115E1,2.163145E3,7.9129265E1,2.691802E1,2.2775095E1,2.0885732E3,7.457166E1,6.240276E1,1.6726507E1,2.346115E1,3.4568698E0,1.6605455E1,6.169641E0,2.0246241E3,6.394913E1,5.515625E0,6.905604E1,4.027069E1,2.2132065E1,1.9310129E0,1.4795494E1,9.01101E0,1.4450139E1,1.6792212E0,1.7776487E0,3.3625963E0,1.3242858E1,1.4939721E0,4.6756687E0,1.9660762E3,5.854806E1,5.4127655E1,9.821476E0,1.0739722E0,4.441653E0,1.675165E0,6.738087E1,2.9294617E0,3.7341232E1,8.7799835E0,1.3352082E1,1.30748625E1,1.7206314E0,7.521686E0,1.4893245E0,1.2229307E1,2.2208323E0,1.2057838E0,2.1568124E0,2.829351E0,1.0413507E1,1.283855E0,3.3918138E0],"tree_param":{"num_deleted":"0","num_feature":"17","num_nodes":"57","size_leaf_vector":"1"}},{"base_weights":[-1.2275866E-3,3.7880577E-4,-2.3602457E-1,7.3782516E-1,-6.269993E-4,6.9840536E-2,2.632359E-1,-2.255086E-1,2.8560867E-3,8.162025E-2,-6.9419396E-1,-2.4485618E-2,3.424414E-2,3.967612E-1,-3.358448E-1,6.8518244E-2,-8.1449854E-1,-1.2924142E-2,-3.4523726E-1,4.058861E-2,-5.017856E-1,-5.3726356E-2,1.7047937E-1,-2.3223744E-1,6.7922495E-2,-3.0681226E-1,-4.750936E-2,-1.03885075E-2,2.916946E-2,-1.5336853E-1,6.503668E-2,2.0331707E-2,-2.8729383E-2,-2.7021656E-3,-2.450216E-1],"categories":[],"categories_nodes":[],"categories_segments":[],"categories_sizes":[],"default_left":[0,0,0,0,0,0,0,1,0,1,0,0,0,0,0,0,1,0,0,0,0,0,0,0,0,0,0,0,0,0,0,0,0,0,0],"id":23,"left_children":[1,3,-1,5,7,-1,-1,9,11,13,15,17,19,21,23,-1,25,27,29,31,33,-1,-1,-1,-1,-1,-1,-1,-1,-1,-1,-1,-1,-1,-1],"loss_changes":[2.891991E0,1.6974927E0,0E0,1.5532732E-2,1.7910906E0,0E0,0E0,5.0770364E0,1.9334681E0,3.0229037E0,1.7301564E0,4.460907E0,3.587202E0,1.3831382E0,2.637024E0,0E0,1.5492926E0,2.784588E0,4.0154514E0,3.851972E0,1.9083707E0,0E0,0E0,0E0,0E0,0E0,0E0,0E0,0E0,0E0,0E0,0E0,0E0,0E0,0E0],"parents":[2147483647,0,0,1,1,3,3,4,4,7,7,8,8,9,9,10,10,11,11,12,12,13,13,14,14,16,16,17,17,18,18,19,19,20,20],"right_children":[2,4,-1,6,8,-1,-1,10,12,14,16,18,20,22,24,-1,26,28,30,32,34,-1,-1,-1,-1,-1,-1,-1,-1,-1,-1,-1,-1,-1,-1],"split_conditions":[2.012E3,2.5E1,-2.3602457E-1,2.6315787E-1,3.4E1,6.9840536E-2,2.632359E-1,1.11111104E-1,3E0,4E1,1.9E1,1E0,8.9E1,2E1,7.142857E-2,6.8518244E-2,6E1,1.6E1,7.4E1,2E0,1E0,-5.3726356E-2,1.7047937E-1,-2.3223744E-1,6.7922495E-2,-3.0681226E-1,-4.750936E-2,-1.03885075E-2,2.916946E-2,-1.5336853E-1,6.503668E-2,2.0331707E-2,-2.8729383E-2,-2.7021656E-3,-2.450216E-1],"split_indices":[5,0,0,6,0,0,0,6,14,7,3,16,0,7,6,0,3,4,0,2,1,0,0,0,0,0,0,0,0,0,0,0,0,0,0],"split_type":[0,0,0,0,0,0,0,0,0,0,0,0,0,0,0,0,0,0,0,0,0,0,0,0,0,0,0,0,0,0,0,0,0,0,0],"sum_hessian":[2.2906208E3,2.2869436E3,3.6772878E0,2.117131E0,2.2848264E3,1.0362809E0,1.0808501E0,3.387661E1,2.2509497E3,2.0964474E1,1.2912136E1,1.203135E3,1.0478147E3,1.1974566E1,8.989907E0,1.3858559E0,1.152628E1,1.162281E3,4.085406E1,1.0364713E3,1.134344E1,2.7377896E0,9.236776E0,4.840152E0,4.149756E0,8.325643E0,3.2006373E0,9.715417E2,1.9073935E2,3.160893E1,9.2451315E0,8.646044E2,1.7186688E2,4.824142E0,6.5192976E0],"tree_param":{"num_deleted":"0","num_feature":"17","num_nodes":"35","size_leaf_vector":"1"}},{"base_weights":[-1.0019075E-3,2.7137992E-4,-2.2329879E-1,-1.4084885E-3,4.2145172E-1,-5.300025E-4,-2.2481818E-1,2.2619076E-1,9.1766864E-2,-4.174909E-3,2.152903E-1,2.9723585E-1,-6.562603E-2,-2.4462054E-3,-5.986517E-1,5.090775E-1,4.804861E-2,-3.9935514E-2,1.7319107E-1,-1.152393E-3,1.9139758E-1,-2.4044612E-1,4.186011E-2,1.9647115E-1,-5.0643757E-2,-7.861766E-2,7.084618E-2],"categories":[],"categories_nodes":[],"categories_segments":[],"categories_sizes":[],"default_left":[0,0,0,1,0,1,0,0,0,1,0,0,0,1,1,0,0,0,0,0,0,0,0,0,0,0,0],"id":24,"left_children":[1,3,-1,5,7,9,-1,-1,11,13,15,17,-1,19,21,23,25,-1,-1,-1,-1,-1,-1,-1,-1,-1,-1],"loss_changes":[2.1613643E0,1.6141022E0,0E0,1.492802E0,9.2433727E-1,1.787181E0,0E0,0E0,4.280181E-1,2.2943895E0,1.8294489E0,5.406195E-1,0E0,1.9936161E0,1.08111E0,1.453331E0,1.5288833E0,0E0,0E0,0E0,0E0,0E0,0E0,0E0,0E0,0E0,0E0],"parents":[2147483647,0,0,1,1,3,3,4,4,5,5,8,8,9,9,10,10,11,11,13,13,14,14,15,15,16,16],"right_children":[2,4,-1,6,8,10,-1,-1,12,14,16,18,-1,20,22,24,26,-1,-1,-1,-1,-1,-1,-1,-1,-1,-1],"split_conditions":[2.012E3,2E0,-2.2329879E-1,1.996E3,6.7E1,9.9E2,-2.2481818E-1,2.2619076E-1,5E0,2.6E2,9.93E2,7.1E1,-6.562603E-2,2.04E2,5.555555E-1,1E0,2E0,-3.9935514E-2,1.7319107E-1,-1.152393E-3,1.9139758E-1,-2.4044612E-1,4.186011E-2,1.9647115E-1,-5.0643757E-2,-7.861766E-2,7.084618E-2],"split_indices":[5,11,0,7,0,3,0,0,4,7,7,0,0,7,6,15,9,0,0,0,0,0,0,0,0,0,0],"split_type":[0,0,0,0,0,0,0,0,0,0,0,0,0,0,0,0,0,0,0,0,0,0,0,0,0,0,0],"sum_hessian":[2.2823938E3,2.2794888E3,2.9050303E0,2.271426E3,8.062876E0,2.269761E3,1.6650558E0,3.373476E0,4.6893997E0,2.2330288E3,3.6732113E1,2.847808E0,1.8415921E0,2.2275554E3,5.4734855E0,1.2583387E1,2.4148726E1,1.3295316E0,1.5182763E0,2.2237053E3,3.8500276E0,4.226416E0,1.2470689E0,1.0383596E1,2.1997907E0,8.96916E0,1.5179566E1],"tree_param":{"num_deleted":"0","num_feature":"17","num_nodes":"27","size_leaf_vector":"1"}},{"base_weights":[-6.4591714E-4,3.7363172E-4,-2.0984437E-1,6.2817985E-1,-6.383306E-4,2.5825305E-2,2.4581046E-1,1.1421915E-3,-3.4677386E-1,1.9455203E-1,2.855361E-4,2.433543E-2,-6.7569697E-1,-4.3417513E-2,1.2763246E-2,-1.9967699E-1,3.287881E-1,-8.55772E-1,1.8696227E-3,-7.269795E-2,8.492557E-3,-1.22926995E-1,4.6672667E-3,2.3741397E-1,-1.1162877E-2,-6.3765403E-3,-3.346987E-1],"categories":[],"categories_nodes":[],"categories_segments":[],"categories_sizes":[],"default_left":[0,0,0,1,0,0,0,0,0,0,0,0,0,0,0,0,1,0,0,0,0,0,0,0,0,0,0],"id":25,"left_children":[1,3,-1,5,7,-1,-1,9,11,-1,13,15,17,19,21,-1,23,25,-1,-1,-1,-1,-1,-1,-1,-1,-1],"loss_changes":[1.6257986E0,1.4483769E0,0E0,3.0971444E-1,1.4033912E0,0E0,0E0,1.2563667E0,1.4389495E0,0E0,1.2350501E0,1.5717396E0,7.68239E-1,7.1834426E0,2.0864518E0,0E0,8.993817E-1,1.0437963E0,0E0,0E0,0E0,0E0,0E0,0E0,0E0,0E0,0E0],"parents":[2147483647,0,0,1,1,3,3,4,4,7,7,8,8,10,10,11,11,12,12,13,13,14,14,16,16,17,17],"right_children":[2,4,-1,6,8,-1,-1,10,12,-1,14,16,18,20,22,-1,24,26,-1,-1,-1,-1,-1,-1,-1,-1,-1],"split_conditions":[2.012E3,1E0,-2.0984437E-1,1.8E1,5E0,2.5825305E-2,2.4581046E-1,2.5E1,6E0,1.9455203E-1,2E0,3.3E1,1.6E1,1E0,3.1E1,-1.9967699E-1,4.8E1,3.6E1,1.8696227E-3,-7.269795E-2,8.492557E-3,-1.22926995E-1,4.6672667E-3,2.3741397E-1,-1.1162877E-2,-6.3765403E-3,-3.346987E-1],"split_indices":[5,8,0,3,14,0,0,0,1,0,8,7,4,15,0,0,3,3,0,0,0,0,0,0,0,0,0],"split_type":[0,0,0,0,0,0,0,0,0,0,0,0,0,0,0,0,0,0,0,0,0,0,0,0,0,0,0],"sum_hessian":[2.2804666E3,2.2781423E3,2.3241754E0,2.6688578E0,2.2754734E3,1.0739733E0,1.5948845E0,2.2648198E3,1.0653539E1,1.9939488E0,2.262826E3,5.4408665E0,5.212672E0,5.0202142E2,1.7608044E3,1.3026726E0,4.138194E0,3.9220576E0,1.2906146E0,1.324197E2,3.6960175E2,1.0611615E1,1.7501929E3,1.3145077E0,2.8236864E0,1.188269E0,2.7337887E0],"tree_param":{"num_deleted":"0","num_feature":"17","num_nodes":"27","size_leaf_vector":"1"}},{"base_weights":[-5.190677E-4,3.0856827E-4,-1.9606745E-1,1.7181538E-2,-3.2159057E-2,2.6217404E-1,1.57499E-2,-1.5242544E-1,1.6884211E-2,-2.3176292E-2,4.802954E-2,-1.2089851E0,-1.1956784E-1,-3.5499662E-1,4.3345526E-2,7.285389E-2,-5.8977544E-2,1.283945E-1,1.0517999E-2,-1.5613809E0,-2.1677753E-2,8.308468E-3,-3.3010998E-1,-2.1449937E-1,-1.5509721E0,-5.2154895E-2,1.14213504E-1,-2.1465278E-1,2.7717493E-2,-4.260767E-2,-3.3848794E-4,3.1001884E-1,3.239897E-2,9.359399E-3,-8.532998E-2,-1.7333975E-1,-6.821965E-1,6.2215254E-2,-3.8891725E-2,-1.3497823E-1,8.3217524E-2,-1.775775E-1,3.1204173E-2,-3.489546E-2,-6.694817E-1,2.6797608E-1,-2.3523752E-2,1.8411404E-2,1.0245401E-1],"categories":[],"categories_nodes":[],"categories_segments":[],"categories_sizes":[],"default_left":[0,1,0,0,0,0,0,0,1,1,0,0,0,1,0,0,0,0,0,0,0,0,0,0,0,0,0,0,0,0,0,0,0,0,0,0,0,0,0,0,0,0,0,0,0,0,0,0,0],"id":26,"left_children":[1,3,-1,5,7,-1,9,11,13,15,17,19,21,23,25,27,29,31,33,35,-1,37,39,41,43,45,47,-1,-1,-1,-1,-1,-1,-1,-1,-1,-1,-1,-1,-1,-1,-1,-1,-1,-1,-1,-1,-1,-1],"loss_changes":[1.2317029E0,1.247761E0,0E0,1.8245114E0,4.59669E0,0E0,1.882478E0,7.6915054E0,5.468723E0,2.3401895E0,2.467149E0,2.57028E0,5.9264417E0,5.8713493E0,3.513454E0,2.9150157E0,2.3802257E0,4.69708E0,3.4207096E0,2.2358265E0,0E0,3.8127482E0,6.178154E0,4.17304E0,3.3738155E0,5.5672774E0,3.555996E0,0E0,0E0,0E0,0E0,0E0,0E0,0E0,0E0,0E0,0E0,0E0,0E0,0E0,0E0,0E0,0E0,0E0,0E0,0E0,0E0,0E0,0E0],"parents":[2147483647,0,0,1,1,3,3,4,4,6,6,7,7,8,8,9,9,10,10,11,11,12,12,13,13,14,14,15,15,16,16,17,17,18,18,19,19,21,21,22,22,23,23,24,24,25,25,26,26],"right_children":[2,4,-1,6,8,-1,10,12,14,16,18,20,22,24,26,28,30,32,34,36,-1,38,40,42,44,46,48,-1,-1,-1,-1,-1,-1,-1,-1,-1,-1,-1,-1,-1,-1,-1,-1,-1,-1,-1,-1,-1,-1],"split_conditions":[2.012E3,4E-2,-1.9606745E-1,2.6E1,1E0,2.6217404E-1,2E0,1E0,1.1E1,1E1,5.9E1,8.3E1,1.3E1,1.2E1,2E0,1E0,2.2E1,1E0,3E0,3E0,-2.1677753E-2,2.4E1,2E0,9E0,6E1,1E0,6.8E1,-2.1465278E-1,2.7717493E-2,-4.260767E-2,-3.3848794E-4,3.1001884E-1,3.239897E-2,9.359399E-3,-8.532998E-2,-1.7333975E-1,-6.821965E-1,6.2215254E-2,-3.8891725E-2,-1.3497823E-1,8.3217524E-2,-1.775775E-1,3.1204173E-2,-3.489546E-2,-6.694817E-1,2.6797608E-1,-2.3523752E-2,1.8411404E-2,1.0245401E-1],"split_indices":[5,6,0,0,15,0,4,10,3,7,0,0,4,7,9,3,7,10,10,14,0,7,2,4,0,10,0,0,0,0,0,0,0,0,0,0,0,0,0,0,0,0,0,0,0,0,0,0,0],"split_type":[0,0,0,0,0,0,0,0,0,0,0,0,0,0,0,0,0,0,0,0,0,0,0,0,0,0,0,0,0,0,0,0,0,0,0,0,0,0,0,0,0,0,0,0,0,0,0,0,0],"sum_hessian":[2.2775383E3,2.2756538E3,1.8845466E0,1.4977599E3,7.7789404E2,1.481967E0,1.4962778E3,2.2471893E2,5.531751E2,6.784334E2,8.178445E2,5.698089E0,2.1902084E2,3.5921898E1,5.172532E2,1.8395999E2,4.9447342E2,2.594896E2,5.583549E2,4.0644836E0,1.6336052E0,1.3685823E2,8.2162605E1,3.3200966E1,2.7209327E0,2.2044691E2,2.9680627E2,3.5873108E0,1.8037268E2,2.0242223E2,2.9205118E2,4.625091E0,2.5486449E2,5.226074E2,3.5747486E1,2.4683495E0,1.5961343E0,5.5811638E1,8.104659E1,6.884392E1,1.331869E1,1.4802358E1,1.8398607E1,1.2522691E0,1.4686635E0,5.0649223E0,2.15382E2,2.4185124E2,5.4955036E1],"tree_param":{"num_deleted":"0","num_feature":"17","num_nodes":"49","size_leaf_vector":"1"}},{"base_weights":[-3.90261E-4,-1.7663771E-3,3.6513126E-1,-1.0351934E-3,-1.9308035E-1,1.4989404E-1,2.4590942E-1,-3.7340191E-3,1.6482642E-1,4.4366437E-1,-1.9128668E-1,-1.2258304E-3,-3.503341E-1,3.4847933E-1,-4.3893784E-2,2.86984E-2,2.0084293E-1,4.0898822E-2,-1.3948993E-1,-2.1859417E-3,6.391713E-1,-4.1705117E-1,-1.4673074E-1,6.801215E-1,5.147677E-2,-4.6483886E-1,3.5339472E-1,-2.8291973E-4,-2.1023248E-1,2.4739091E-1,3.810596E-2,-1.8952923E-1,6.385286E-2,2.5614843E-1,3.0416623E-2,-1.6268472E-1,6.9965616E-2,2.4872193E-2,-2.798927E-1,2.4050514E-1,-2.2455268E-2],"categories":[],"categories_nodes":[],"categories_segments":[],"categories_sizes":[],"default_left":[0,1,1,1,0,0,0,1,0,0,0,1,0,0,0,0,0,0,0,1,0,0,0,0,0,0,0,0,0,0,0,0,0,0,0,0,0,0,0,0,0],"id":27,"left_children":[1,3,5,7,-1,9,-1,11,13,15,17,19,21,23,25,-1,-1,-1,-1,27,29,-1,31,33,35,37,39,-1,-1,-1,-1,-1,-1,-1,-1,-1,-1,-1,-1,-1,-1],"loss_changes":[1.142989E0,1.0616105E0,7.110044E-1,1.0131421E0,0E0,7.872573E-1,0E0,1.9353491E0,1.404394E0,2.5554162E-1,4.1674986E-1,1.3612859E0,3.1822891E0,1.8747494E0,3.149416E0,0E0,0E0,0E0,0E0,1.9176865E0,2.1007395E-1,0E0,2.662218E0,8.260689E-1,1.3469881E0,2.4104595E0,1.9319912E0,0E0,0E0,0E0,0E0,0E0,0E0,0E0,0E0,0E0,0E0,0E0,0E0,0E0,0E0],"parents":[2147483647,0,0,1,1,2,2,3,3,5,5,7,7,8,8,9,9,10,10,11,11,12,12,13,13,14,14,19,19,20,20,22,22,23,23,24,24,25,25,26,26],"right_children":[2,4,6,8,-1,10,-1,12,14,16,18,20,22,24,26,-1,-1,-1,-1,28,30,-1,32,34,36,38,40,-1,-1,-1,-1,-1,-1,-1,-1,-1,-1,-1,-1,-1,-1],"split_conditions":[2E0,1.996E3,4.2E1,9.9E2,-1.9308035E-1,3.6E1,2.4590942E-1,1.8E2,1E0,1.9E1,6.9E1,1.6E2,4.1E1,9.93E2,1.7647058E-1,2.86984E-2,2.0084293E-1,4.0898822E-2,-1.3948993E-1,1.42E2,1.5E1,-4.1705117E-1,7E0,8E1,9.95E2,9.95E2,9.96E2,-2.8291973E-4,-2.1023248E-1,2.4739091E-1,3.810596E-2,-1.8952923E-1,6.385286E-2,2.5614843E-1,3.0416623E-2,-1.6268472E-1,6.9965616E-2,2.4872193E-2,-2.798927E-1,2.4050514E-1,-2.2455268E-2],"split_indices":[11,7,7,3,0,3,0,7,16,7,0,3,0,3,6,0,0,0,0,3,1,0,4,0,7,7,3,0,0,0,0,0,0,0,0,0,0,0,0,0,0],"split_type":[0,0,0,0,0,0,0,0,0,0,0,0,0,0,0,0,0,0,0,0,0,0,0,0,0,0,0,0,0,0,0,0,0,0,0,0,0,0,0,0,0],"sum_hessian":[2.2700615E3,2.2625388E3,7.522843E0,2.2609646E3,1.5740978E0,6.0078697E0,1.5149733E0,2.225726E3,3.523853E1,3.0668278E0,2.9410417E0,2.2107317E3,1.4994532E1,1.8388704E1,1.6849823E1,1.7671196E0,1.2997082E0,1.5670388E0,1.374003E0,2.2084172E3,2.3143687E0,1.5009735E0,1.3493559E1,8.078288E0,1.0310416E1,8.098776E0,8.751046E0,2.2054949E3,2.922497E0,1.2511493E0,1.0632195E0,5.422329E0,8.07123E0,5.8477473E0,2.2305412E0,1.9513763E0,8.35904E0,4.111265E0,3.9875104E0,3.8494303E0,4.901616E0],"tree_param":{"num_deleted":"0","num_feature":"17","num_nodes":"41","size_leaf_vector":"1"}},{"base_weights":[-1.9368788E-4,5.343256E-1,-1.0256638E-3,4.3714484E-3,2.3259157E-1,3.006066E-4,-3.2884485E-1,-4.9329378E-2,8.829901E-3,1.9890647E-1,-5.490376E-1,-3.5521942E-1,-3.238722E-2,1.3713449E-1,3.690223E-3,-2.529608E-1,-3.0874592E-1,2.518599E-1,-7.9515547E-1,-7.8506164E-2,9.33589E-2,1.899319E-1,-7.4093574E-1,-1.5148585E-1,1.4641082E-2,4.5448266E-2,-5.810158E-1,1.608053E-1,-2.5057003E-1,-3.416223E-1,2.25066E-1,2.3101965E-2,-4.753103E-2,9.3064606E-2,-6.539887E-2,2.2356272E-1,3.8085632E-2,-3.1833714E-1,-5.2693497E-2,1.84452E-1,-5.4250196E-2,8.6763814E-2,2.8306267E-3,-2.1653584E-1,-2.7802823E-2],"categories":[],"categories_nodes":[],"categories_segments":[],"categories_sizes":[],"default_left":[0,0,0,0,0,0,0,0,0,0,0,0,0,0,0,0,0,1,0,0,1,0,0,0,0,0,0,0,0,0,0,0,0,0,0,0,0,0,0,0,0,0,0,0,0],"id":28,"left_children":[1,3,5,-1,-1,7,9,11,13,-1,15,17,19,21,23,-1,25,27,29,31,33,35,37,39,41,-1,43,-1,-1,-1,-1,-1,-1,-1,-1,-1,-1,-1,-1,-1,-1,-1,-1,-1,-1],"loss_changes":[1.0097803E0,4.3068302E-1,9.8569554E-1,0E0,0E0,9.5659137E-1,2.359178E0,1.7060024E0,1.2711385E0,0E0,3.067515E-1,4.818535E0,1.8347818E0,3.5826697E0,3.1546333E0,0E0,8.390466E-1,2.9267323E0,6.305627E0,2.8848333E0,5.807892E0,2.3823733E0,6.1274004E-1,2.8634188E0,2.4753504E0,0E0,2.0619106E-1,0E0,0E0,0E0,0E0,0E0,0E0,0E0,0E0,0E0,0E0,0E0,0E0,0E0,0E0,0E0,0E0,0E0,0E0],"parents":[2147483647,0,0,1,1,2,2,5,5,6,6,7,7,8,8,10,10,11,11,12,12,13,13,14,14,16,16,17,17,18,18,19,19,20,20,21,21,22,22,23,23,24,24,26,26],"right_children":[2,4,6,-1,-1,8,10,12,14,-1,16,18,20,22,24,-1,26,28,30,32,34,36,38,40,42,-1,44,-1,-1,-1,-1,-1,-1,-1,-1,-1,-1,-1,-1,-1,-1,-1,-1,-1,-1],"split_conditions":[1E0,3E0,9.5E1,4.3714484E-3,2.3259157E-1,1E0,1.3E1,7E0,6E0,1.9890647E-1,2.5E1,1E0,6.9E1,3E0,9E0,-2.529608E-1,4.1E1,1.4285713E-1,3E0,2E0,2.5E1,4.9E1,3E0,4.7E1,1E1,4.5448266E-2,1E0,1.608053E-1,-2.5057003E-1,-3.416223E-1,2.25066E-1,2.3101965E-2,-4.753103E-2,9.3064606E-2,-6.539887E-2,2.2356272E-1,3.8085632E-2,-3.1833714E-1,-5.2693497E-2,1.84452E-1,-5.4250196E-2,8.6763814E-2,2.8306267E-3,-2.1653584E-1,-2.7802823E-2],"split_indices":[8,14,0,0,0,11,3,3,7,0,3,13,0,8,3,0,7,6,10,8,3,0,7,0,7,0,4,0,0,0,0,0,0,0,0,0,0,0,0,0,0,0,0,0,0],"split_type":[0,0,0,0,0,0,0,0,0,0,0,0,0,0,0,0,0,0,0,0,0,0,0,0,0,0,0,0,0,0,0,0,0,0,0,0,0,0,0,0,0,0,0,0,0],"sum_hessian":[2.268431E3,2.5287814E0,2.265902E3,1.1369759E0,1.3918055E0,2.2577668E3,8.135249E0,3.3040915E2,1.9273577E3,1.1125646E0,7.0226846E0,1.6291952E1,3.1411722E2,7.324408E1,1.8541135E3,2.0293162E0,4.9933686E0,7.0252004E0,9.26675E0,2.3010063E2,8.401658E1,6.982903E1,3.4150488E0,1.2137467E2,1.7327389E3,2.0208862E0,2.9724822E0,5.97128E0,1.0539206E0,7.7964787E0,1.4702718E0,7.8129234E1,1.519714E2,4.9525856E1,3.449072E1,6.009781E0,6.3819252E1,1.6202111E0,1.7948376E0,3.7410157E0,1.1763366E2,3.1224987E1,1.7015139E3,1.9362824E0,1.0361997E0],"tree_param":{"num_deleted":"0","num_feature":"17","num_nodes":"45","size_leaf_vector":"1"}},{"base_weights":[2.1133939E-4,8.937108E-4,-1.8221143E-1,-2.4284085E-4,3.1825337E-1,4.390739E-3,-7.856773E-2,1.8532273E-1,5.8092516E-2,2.4827598E-3,4.8206288E-1,-8.112796E-1,-4.337507E-2,-1.3703206E-1,9.6320115E-2,5.084931E-4,3.578852E-1,-1.6520875E-2,9.849684E-1,-9.988431E-3,-9.916531E-1,-1.4320864E-1,1.1848237E-1,5.2097943E-2,-1.1937696E-1,8.965974E-4,-7.9012886E-2,-7.991662E-2,2.1958886E-1,1.681643E-1,-1.9668876E-1,1.0939457E-1,3.7446833E-1,-3.5686716E-1,-8.026563E-2,-2.4108486E-3,-1.3499492E-1,-1.0144407E-2,2.3411909E-1],"categories":[],"categories_nodes":[],"categories_segments":[],"categories_sizes":[],"default_left":[0,0,0,1,0,1,0,0,1,1,0,0,1,0,0,1,0,0,0,0,0,0,0,0,0,0,0,0,0,0,0,0,0,0,0,0,0,0,0],"id":29,